%YAML:1.0
---
opencv_ml_svm:
   format: 3
   svmType: C_SVC
   kernel:
      type: LINEAR
   C: 3.1250000000000000e+02
   term_criteria: { iterations:100 }
   var_count: 32
   class_count: 30
   class_labels: !!opencv-matrix
      rows: 30
      cols: 1
      dt: i
      data: [ 0, 1, 2, 3, 4, 5, 6, 7, 8, 9, 10, 11, 12, 13, 14, 15, 16,
          17, 18, 19, 20, 21, 22, 23, 24, 25, 26, 27, 28, 29 ]
   sv_total: 435
   support_vectors:
      - [ 0., 0., 1.74509041e-04, 0., -1.59599353e-02, 2.61763576e-04,
          0., 3.49018094e-03, -2.47955713e-02, -2.01237015e-02,
          -2.01237015e-02, -1.61932111e-02, -2.58547422e-02,
          -2.83396933e-02, -2.83396933e-02, -2.19705459e-02,
          1.74509041e-04, -1.22079896e-02, -8.12361911e-02,
          -1.04504675e-01, -6.66102543e-02, -4.82016318e-02,
          -4.82888892e-02, -3.46735753e-02, -4.18324843e-02,
          -4.59784418e-02, -1.56981703e-02, 3.66469007e-03,
          -9.91137177e-02, -8.66271555e-02, -3.99856418e-02,
          -1.57788694e-01 ]
      - [ -6.37736544e-02, -2.12578848e-02, 1.44940121e-02,
          -8.50315392e-02, -1.91804126e-01, 2.17410177e-02,
          -1.91320971e-01, -4.75403607e-01, -6.47399351e-02,
          -2.12578848e-02, -5.10189235e-01, -5.02459034e-02,
          -2.44948834e-01, -3.81675661e-01, 3.62350315e-01,
          1.49771525e-02, -1.55569062e-01, -8.36787641e-01,
          -6.46432996e-01, -2.49296993e-01, -5.65266609e-01,
          -4.02450413e-01, -3.24665904e-01, -5.95703900e-01,
          -5.37244737e-01, -5.42559266e-01, -2.55094618e-01,
          -7.37262130e-01, -7.12622464e-01, -1.83107629e-01,
          -7.01027095e-01, -1.18705964e+00 ]
      - [ -1.81341115e-02, -3.62682231e-02, -2.48460881e-02,
          -3.62682231e-02, -1.28528461e-01, 1.71332024e-02, 0.,
          -1.61440685e-01, -2.77899392e-02, -1.45072892e-01,
          -1.45072892e-01, -1.63677875e-02, -1.82930797e-01,
          -3.12872291e-01, -3.12872291e-01, -1.37242243e-01,
          -1.15516640e-01, -2.72835940e-01, -3.34303528e-01,
          -9.45917547e-01, -3.57383251e-01, -4.77080196e-01,
          -4.82791275e-01, -3.51318926e-01, -2.83316046e-01,
          -3.64271909e-01, -1.65797591e-01, -2.22554982e-01,
          -6.68666005e-01, -6.11555219e-01, -2.73012578e-01,
          -1.39556134e+00 ]
      - [ 7.64916232e-03, 3.69709507e-02, -9.71078277e-02,
          -1.88062206e-01, 3.06740850e-01, -8.20538700e-01,
          -4.65860456e-01, -3.83438319e-02, -3.27225447e-01, 0.,
          -9.08996016e-02, -5.23672998e-02, 3.40939492e-01,
          3.06840718e-01, -3.38102207e-02, -1.37733698e-01,
          -2.40549937e-01, -1.01800215e+00, -4.70492303e-01,
          4.76236343e-01, 3.28104079e-01, -4.76727009e-01,
          -6.87678039e-01, -4.16507065e-01, -1.04152286e+00,
          -3.12983215e-01, -4.69177723e-01, -7.89374352e-01,
          3.20554733e-01, -3.14810693e-01, -1.37729871e+00,
          1.24490395e-01 ]
      - [ -4.15261798e-02, 2.19345331e-01, 5.78505099e-01,
          -1.03716720e-02, 5.96211910e-01, -2.45400715e+00, 0.,
          4.45344448e-01, 5.04872128e-02, -2.38204980e+00, 0.,
          4.87185307e-02, 4.02122438e-01, 2.34277797e+00,
          -2.17057395e+00, 4.70589340e-01, 7.45952606e-01,
          -1.41245055e+00, -2.28284407e+00, 1.04491580e+00,
          1.00729549e+00, -2.27393341e+00, -1.59206879e+00,
          9.54280615e-01, -2.02494383e+00, -1.99029899e+00,
          -1.67997599e+00, 1.01347804e+00, 4.13337797e-01,
          -1.65126657e+00, -4.83605671e+00, 2.93162799e+00 ]
      - [ -4.10599299e-02, 3.64829183e-01, 4.98705894e-01,
          4.67410944e-02, 6.72459185e-01, -2.84659457e+00, 0.,
          2.14077801e-01, 4.61511835e-02, -2.86004639e+00, 0.,
          1.70586854e-01, 1.55678272e-01, 2.94298077e+00,
          -1.58354211e+00, -5.42915881e-01, 8.69216263e-01,
          -1.96005785e+00, -2.64330840e+00, 9.72199857e-01,
          8.33228528e-01, -2.39883065e+00, -1.08483648e+00,
          -1.11510359e-01, -3.43057036e+00, -2.65762687e+00,
          -1.85036600e+00, 7.59524763e-01, 2.84763783e-01,
          -1.95587087e+00, -5.70664120e+00, 2.94468999e+00 ]
      - [ -5.21418989e-01, 8.18928033e-02, 2.57466286e-01,
          -6.03307486e-02, -1.07406296e-01, 2.83222962e-02,
          -2.99987018e-01, -4.10134763e-01, -1.55962586e-01,
          -5.08673668e-01, -5.34759462e-01, 3.08937520e-01,
          -4.67872858e-01, 9.62405801e-02, 4.87081647e-01,
          4.36673373e-01, -2.42390662e-01, -7.89205790e-01,
          -8.90458167e-01, 5.52122712e-01, -1.25266075e+00,
          -3.02217901e-01, -9.01986286e-02, 2.75145382e-01,
          -5.91182709e-01, -1.33686423e+00, -5.18610179e-01,
          -5.12986183e-01, -1.03626847e+00, 6.97933078e-01,
          -1.31509781e+00, -5.48343733e-02 ]
      - [ 0., 6.39745951e-01, -1.00779235e+00, -2.98957407e-01,
          2.27576867e-03, -1.90474093e+00, -1.23346753e-01,
          -5.82978837e-02, 1.80162206e-01, -1.31569874e+00, 0.,
          1.17312767e-01, -8.87242984e-03, -2.40096658e-01,
          1.03448629e+00, -6.67948663e-01, -6.67003810e-01,
          -2.08411026e+00, -1.01822388e+00, 1.17568038e-01,
          1.73565552e-01, -2.82078981e+00, -9.66529101e-02,
          -9.07891572e-01, -2.57268929e+00, -1.74687541e+00,
          -1.26271915e+00, -1.48839414e+00, -1.38450563e+00,
          4.83850271e-01, -3.34378624e+00, -3.07982951e-01 ]
      - [ -1.06670536e-01, -5.59454679e-01, 1.41756371e-01,
          -2.84898818e-01, -6.37496412e-02, -1.76618844e-01,
          -1.67896390e+00, -1.27614006e-01, 3.17974955e-01, 0.,
          -1.34769344e+00, 3.68627220e-01, -1.35033414e-01,
          4.59790677e-01, -4.81180280e-01, -1.48044869e-01,
          -8.09267640e-01, -2.04694653e+00, -6.61091268e-01,
          -3.04468125e-01, 1.25213834e-02, -2.76282638e-01,
          -3.36608148e+00, -1.91930637e-01, -1.77902746e+00,
          -2.09889603e+00, -9.06493664e-01, -1.94972038e+00,
          6.42732024e-01, -1.60829139e+00, -3.20327616e+00,
          -6.18497789e-01 ]
      - [ 0., 0., 5.54785598e-03, -7.95736611e-02, 9.69786942e-02,
          -2.76468158e-01, -3.35047007e-01, 7.32643381e-02,
          -1.96133032e-01, -3.35046984e-02, -1.34018794e-01,
          1.10957123e-01, 1.13731049e-01, 1.72418617e-02,
          -1.96350604e-01, -1.53055549e-01, -7.40258023e-02,
          -4.41272169e-01, -2.52699405e-01, -2.18433246e-01,
          1.45767238e-02, -2.92730987e-01, -6.59868538e-01,
          -4.84077632e-02, -5.63542485e-01, -3.34394306e-01,
          -1.79489449e-01, -3.35808456e-01, -9.86648425e-02,
          -3.72467786e-01, -7.79038668e-01, -2.07391948e-01 ]
      - [ -7.67387152e-01, -3.39236021e-01, -3.08639050e-01,
          -1.14390719e+00, 1.58365309e-01, -1.06576371e+00,
          -6.75322115e-01, 1.87407643e-01, 3.43604296e-01,
          -1.25641316e-01, -2.51282632e-01, 4.01492596e-01,
          4.26682502e-01, -4.55418043e-03, 1.52236270e-02,
          3.37367862e-01, -2.55916953e+00, -1.39531279e+00,
          3.68172973e-01, 7.74719775e-01, 1.61265001e-01,
          -1.53519511e+00, -1.22002017e+00, -2.17638955e-01,
          -1.74706554e+00, -1.51818824e+00, -2.01402140e+00,
          -1.94046068e+00, 6.40091419e-01, 5.02801538e-01,
          -2.11800957e+00, -6.93580151e-01 ]
      - [ 9.41707045e-02, 3.71556655e-02, 2.41445675e-01, 6.43519163e-02,
          -4.78763729e-01, -1.51892424e+00, -1.20383465e+00,
          -2.56026834e-01, -3.66665542e-01, 0., 0., -3.37641954e-01,
          -8.89957845e-02, 6.96407199e-01, 5.77641129e-01,
          3.14315677e-01, 4.37123984e-01, -3.45754981e+00,
          -7.04307497e-01, 1.49936831e+00, -8.40254605e-01,
          -7.85361350e-01, -3.84747624e-01, -2.15001211e-01,
          -1.11043787e+00, -1.22847867e+00, -1.86636150e+00,
          -1.15406382e+00, 2.40746006e-01, 5.54314792e-01,
          -2.72275901e+00, 4.97393161e-01 ]
      - [ -7.71795690e-01, 1.00475781e-01, -4.30356264e-01,
          -2.81302333e+00, 1.06433117e+00, 0., 0., 1.22497368e+00,
          3.41439515e-01, 0., 0., 3.41439515e-01, 8.81755888e-01,
          9.36291277e-01, 2.38207459e+00, 7.53123343e-01,
          -3.91469979e+00, 2.28930497e+00, 6.82879031e-01,
          4.95324421e+00, 1.51573014e+00, 1.03676689e+00, 1.95171857e+00,
          -4.93486702e-01, -1.86724644e-02, -1.93126738e+00,
          3.93011123e-01, -2.01840544e+00, 2.15948629e+00,
          3.47663689e+00, 0., 4.01072979e+00 ]
      - [ -1.08428979e+00, -4.89934444e-01, -2.57360667e-01,
          -1.13597286e+00, 2.22949147e-01, -4.64752108e-01,
          -5.26719034e-01, 3.67582649e-01, 8.33257511e-02,
          -3.71801674e-01, -2.47867778e-01, 8.33257511e-02,
          5.48473418e-01, 4.55061525e-01, 9.66684401e-01, 5.74315012e-01,
          -2.96755767e+00, -4.00939286e-01, -4.53017980e-01,
          2.54453421e+00, -2.29541481e-01, -8.71426582e-01,
          -6.52630553e-02, -1.10749267e-01, -1.22259474e+00,
          -1.48602009e+00, -1.81602728e+00, -1.55246973e+00,
          7.15058923e-01, 1.37645721e+00, -1.61114049e+00,
          3.34160060e-01 ]
      - [ 6.07437007e-02, 2.93594569e-01, 3.84710103e-01, 4.04958017e-02,
          5.42158447e-02, -2.04311848e-01, -1.40464395e-01,
          3.02157879e-01, -4.22061160e-02, -3.06467772e-01,
          -1.02155924e-01, 3.66417557e-01, 1.59481794e-01,
          7.55667165e-02, 4.62109685e-01, 5.92379808e-01, 7.79544175e-01,
          1.15975114e-02, -8.44122320e-02, 1.28953791e+00,
          2.32235163e-01, -1.41618371e-01, 6.04199529e-01,
          1.30145109e+00, 3.46655726e-01, -2.46954620e-01,
          2.04242274e-01, 5.86899400e-01, -1.13625437e-01,
          1.31875110e+00, -7.53399909e-01, 2.74966741e+00 ]
      - [ 1.13302402e-01, -1.55365646e+00, -1.56048477e+00,
          1.32285088e-01, 1.22043090e-02, -9.32727337e-01, 0.,
          -6.64023757e-01, -2.56286681e-01, -1.49413854e-01,
          -8.46678615e-01, -4.69155252e-01, 2.37251982e-01,
          1.49941897e+00, -6.50638565e-02, -1.32366538e-01,
          -2.86855388e+00, -1.58454657e+00, -1.72153425e+00,
          1.53924096e+00, 1.06472135e-01, -1.13637865e+00,
          -2.47222733e+00, -1.13326001e+00, -1.79847038e+00,
          2.20123172e-01, -2.36087728e+00, -2.09222341e+00,
          1.33097029e+00, -1.51326358e+00, -1.92881978e+00,
          -2.70657325e+00 ]
      - [ -4.20558631e-01, -2.51815677e-01, -2.09150568e-01,
          -4.07111704e-01, 1.26452065e+00, -9.89716291e-01, 0.,
          1.49398160e+00, 1.12332964e+00, -9.89716291e-01, 0.,
          1.12332964e+00, -2.75764197e-01, -1.59728184e-01,
          -7.43979663e-02, -3.15784723e-01, -1.28863657e+00,
          1.76878595e+00, 1.25694299e+00, -8.25675130e-01,
          1.69152725e+00, -2.39097667e+00, -2.83548623e-01,
          1.89441466e+00, -1.72605956e+00, -1.67259228e+00,
          -3.97569865e-01, 8.77719343e-01, -3.01878840e-01,
          7.33146667e-01, -1.97943258e+00, 2.89084911e+00 ]
      - [ -2.29780257e-01, 1.54823825e-01, 4.47929323e-01,
          8.78799334e-03, 5.05137444e-01, -5.87158740e-01,
          -6.47899330e-01, 3.47556621e-01, 8.04273784e-02,
          -2.73332536e-01, -2.53085673e-01, 1.00674249e-01,
          2.00960815e-01, 3.57292354e-01, 5.79060078e-01, 1.62664130e-01,
          3.81760836e-01, -3.82363915e-01, -3.45316648e-01,
          1.29997718e+00, 5.56745350e-01, -3.48375082e-01,
          1.26004383e-01, 6.19682968e-01, -9.07360494e-01,
          -7.11483121e-01, -1.56977758e-01, 1.56374678e-01,
          3.65347892e-01, 5.89312673e-01, -1.76147628e+00,
          2.71553397e+00 ]
      - [ -6.25391781e-01, -2.84579873e-01, -1.51218712e-01,
          -5.83597660e-01, 6.07534289e-01, 0., 0., 2.08590552e-01,
          4.74173069e-01, 0., 0., 4.55935374e-02, 7.40895450e-01,
          4.29719359e-01, 6.96441770e-01, 3.27133864e-01,
          -1.64478803e+00, 8.16124856e-01, 5.19766629e-01,
          2.19419026e+00, 1.19721103e+00, 1.45139500e-01, 5.45223117e-01,
          -2.27974122e-03, -2.98258007e-01, 1.57297820e-01,
          -3.02437365e-01, -5.26225805e-01, 1.64478779e+00,
          1.06916904e+00, 0., 1.88529408e+00 ]
      - [ -3.54560465e-01, 2.89030164e-01, 4.54740942e-01,
          -1.21114850e+00, -5.07861078e-01, -4.77759570e-01, 0.,
          1.72730756e+00, 1.28610790e+00, -2.17977810e+00, 0.,
          1.28610790e+00, -1.66006252e-01, -1.87889319e-02,
          -4.56868708e-02, -7.08890334e-02, -8.21937680e-01,
          7.41686940e-01, 3.92437667e-01, -3.01371306e-01,
          2.57679939e-01, -2.38729644e+00, 4.09054220e-01,
          1.73137796e+00, -9.03209209e-01, -3.55693316e+00,
          -1.05115080e+00, 9.70899999e-01, -1.07846558e+00,
          1.16953182e+00, -2.65753770e+00, 2.66835356e+00 ]
      - [ -4.76950616e-01, 8.81911293e-02, 4.19941604e-01,
          -5.32306135e-01, -2.73767173e-01, -9.02174234e-01, 0.,
          1.40352666e+00, 1.04087591e+00, -5.51810503e-01,
          -1.45398474e+00, 1.04087591e+00, 3.73147726e-01,
          -2.08381668e-01, -1.10485718e-01, -2.31846258e-01,
          -5.01123965e-01, 2.27585346e-01, 7.59566277e-02,
          -1.77566245e-01, 6.63305521e-01, -1.57417536e+00,
          -1.14452863e+00, 1.68025005e+00, -3.06495595e+00,
          -7.10968912e-01, -1.56470084e+00, 1.29116225e+00,
          6.53831303e-01, -7.55440772e-01, -2.90796947e+00,
          2.53282094e+00 ]
      - [ 6.85729310e-02, 3.31435859e-01, 4.34295237e-01,
          -4.32328135e-02, -1.08229652e-01, -5.78982115e-01,
          -5.71268320e-01, 1.51287094e-01, -3.16958278e-02,
          -1.62468746e-01, -2.59950012e-01, 5.06475985e-01,
          8.80466774e-02, -6.60855353e-01, 7.85917521e-01,
          8.35053682e-01, 7.91071177e-01, -1.10719311e+00,
          5.23614287e-02, 1.04816246e+00, 1.66941360e-02,
          -1.07087040e+00, 3.88994426e-01, 1.44958401e+00,
          6.46945462e-02, -6.88923240e-01, -2.87202954e-01,
          -2.89188344e-02, -7.66973257e-01, 1.86749721e+00,
          -1.57266927e+00, 2.35707116e+00 ]
      - [ -3.33138019e-01, -2.14547873e-01, -5.65901279e-01,
          -5.26189625e-01, -7.46413972e-03, -1.03882873e+00, 0.,
          -1.50146797e-01, 7.95415863e-02, -8.32845092e-01,
          -3.80729169e-01, 9.04959366e-02, -2.95698076e-01,
          9.55840766e-01, 2.78133694e-02, -7.45637119e-02,
          -1.63977695e+00, -1.19643962e+00, -1.04353666e+00,
          6.13392115e-01, -5.56758940e-01, -1.13038075e+00,
          -9.18817103e-01, -6.60404265e-01, -1.82725954e+00,
          -1.65473270e+00, -1.59397864e+00, -1.24223781e+00,
          -9.31607708e-02, -3.36983591e-01, -2.25240302e+00,
          -1.01395822e+00 ]
      - [ -2.44384743e-02, 0., 6.34765544e-04, 0., -3.14208977e-02,
          9.52148344e-04, 0., 1.26953116e-02, -6.79199174e-02,
          -8.88671800e-02, -8.88671800e-02, -6.72851503e-02,
          -3.14208977e-02, 1.58691388e-02, 1.58691388e-02,
          1.55517561e-02, -2.38037091e-02, -1.77734364e-02,
          -3.12939435e-01, 1.58691388e-02, -1.55200168e-01,
          -7.20458925e-02, -7.23632723e-02, -3.90380807e-02,
          -9.68017504e-02, -1.20288074e-01, -5.49072251e-02,
          1.33300768e-02, -1.72338858e-01, -1.24731436e-01,
          -1.76782206e-01, -1.61865205e-01 ]
      - [ -2.74448657e+00, -1.56489789e+00, 3.50839794e-01,
          3.41204941e-01, 5.92529774e+00, 0., 0., -1.71958119e-01,
          5.35301638e+00, 0., 0., -7.49172747e-01, -3.14218307e+00,
          -5.48004985e-01, 1.99434813e-02, 9.91132796e-01,
          -3.61733985e+00, 5.75333977e+00, 4.60384369e+00,
          -2.67910886e+00, 5.39164400e+00, -2.11290312e+00,
          3.70783240e-01, 4.11205530e-01, -1.75335371e+00,
          -2.80097795e+00, 1.61591363e+00, 5.20086586e-01,
          1.66282845e+00, 2.61902273e-01, 0., 4.06072569e+00 ]
      - [ -1.31265923e-01, 4.88272011e-02, 5.74643649e-02,
          5.42524457e-03, 1.03269674e-01, -4.73876864e-01,
          -5.52698612e-01, 2.76598465e-02, 1.69531316e-01, 0.,
          -6.21785931e-02, -3.30110759e-01, -2.64376640e-01,
          -2.13938504e-01, 1.31498128e-01, 1.81771621e-01,
          -1.95491109e-02, -8.95645976e-01, -2.22758040e-01,
          -1.65045395e-01, -1.22841537e-01, -6.38988137e-01,
          -4.25914705e-01, -1.15254052e-01, -4.85549748e-01,
          -8.11649978e-01, -4.53045934e-01, -4.62149173e-01,
          -3.08783799e-01, -7.90195614e-02, -1.08875406e+00,
          -2.14244455e-01 ]
      - [ -2.86040492e-02, 0., 5.51030366e-03, -9.53468308e-03,
          -9.68018025e-02, -1.25220105e-01, -1.33485556e-01,
          -1.66299716e-01, 1.04695767e-01, -2.86040485e-01,
          -2.66971111e-01, 1.10206082e-01, -1.30173191e-01,
          1.37757584e-01, 1.23455569e-01, -1.84409425e-01,
          -3.26284282e-02, -5.21807134e-01, -3.38109791e-01,
          -5.33694625e-02, -1.50883257e-01, -2.73503006e-01,
          -2.71490782e-01, -2.50037760e-01, -6.05204642e-01,
          -5.59233904e-01, -2.50625938e-01, -3.03809643e-01,
          -1.73760355e-01, -2.17718884e-01, -8.11717272e-01,
          -1.34197637e-01 ]
      - [ -1.07371798e-02, 0., 1.84763153e-03, 0., -7.48639405e-02,
          -1.15337528e-01, 0., 3.69526334e-02, 3.51049975e-02,
          -1.63741991e-01, -1.61057696e-01, -9.99464020e-02,
          -1.28549844e-01, 3.81379053e-02, 4.61907908e-02,
          4.52669747e-02, -8.88954755e-03, -1.53248832e-01,
          -3.89641106e-01, 1.04584056e-03, -1.79045960e-01,
          -2.40941614e-01, -1.13019280e-01, -1.77267957e-02,
          -2.41865441e-01, -2.92291820e-01, -2.00938672e-01,
          3.88002656e-02, -2.19048932e-01, -1.69546336e-01,
          -4.40137267e-01, -1.10596471e-01 ]
      - [ 0., 0., 1.70909129e-02, -2.92444527e-01, -9.56798997e-03,
          2.56363712e-02, -5.39897621e-01, -5.18570282e-02,
          -3.52043696e-02, -4.38666791e-01, -1.91213712e-01,
          -1.81134306e-02, -3.91995460e-01, 8.98368433e-02,
          4.27272826e-01, 5.87956794e-02, -2.75353611e-01,
          -5.75686276e-01, -6.83198214e-01, 1.83909953e-01,
          -4.36767846e-01, -3.23193580e-01, -2.86747605e-01,
          -3.03619295e-01, -1.06781676e-01, -1.66300428e+00,
          1.60683896e-02, -8.67108285e-01, -7.76029766e-01,
          2.76741445e-01, -1.14414167e+00, -2.06186682e-01 ]
      - [ 0., 0., 0., 0., 1.43997613e-02, -1.63296261e-03,
          -2.72160443e-03, -1.74182672e-02, 2.99871303e-02,
          2.80407704e-02, 1.71543527e-02, 1.87708214e-02, 2.81314924e-02,
          3.28901745e-02, 4.40487526e-02, 2.71830540e-02, 0.,
          -7.37307221e-03, 9.39530730e-02, 1.32253468e-01,
          7.25183859e-02, 5.92979863e-02, 5.84815033e-02, 2.85356082e-02,
          4.27044444e-02, 5.34506552e-02, 1.27667980e-02,
          -2.01398712e-02, 1.19049571e-01, 1.07156985e-01,
          4.08405550e-02, 1.77992910e-01 ]
      - [ 0., 0., 0., 0., 2.14881767e-02, -1.72745693e-03, 0.,
          -2.01536641e-02, 4.45481315e-02, 3.04947905e-02,
          3.04947905e-02, 1.95789244e-02, 4.62015085e-02, 3.53400335e-02,
          3.53400335e-02, 4.06558923e-02, 0., -3.92944319e-04,
          1.25116631e-01, 1.57537460e-01, 1.12237819e-01, 6.41073734e-02,
          6.58348277e-02, 4.00811546e-02, 6.94232285e-02, 7.66962916e-02,
          1.97607204e-02, -2.01536641e-02, 1.56584471e-01,
          1.26069650e-01, 5.92621230e-02, 2.22999036e-01 ]
      - [ 0., 0., -3.99396697e-04, -1.19819003e-03, 2.32376270e-02,
          -1.07837105e-02, -1.37791857e-02, -4.79276013e-03,
          1.94252022e-02, 2.18094792e-02, 2.26082727e-02, 1.85295846e-02,
          3.48564386e-02, 3.69320884e-02, 2.93435529e-02, 2.15976778e-02,
          -1.59758679e-03, -6.11803075e-03, 8.23725387e-02,
          1.22729756e-01, 7.75192678e-02, 4.79578599e-02, 3.77732478e-02,
          3.41363139e-02, 3.34222391e-02, 4.16885391e-02, 1.24539156e-02,
          -2.01695319e-02, 1.13023214e-01, 9.20790881e-02,
          1.98548529e-02, 1.77531824e-01 ]
      - [ 0., 0., 0., 0., 1.58460885e-02, -4.12610685e-03,
          -7.57856411e-04, -4.12610685e-03, 2.49786414e-02,
          1.82676557e-02, 2.05412246e-02, 1.74358003e-02, 2.62111165e-02,
          3.03397737e-02, 2.81504095e-02, 2.21666619e-02, 0.,
          6.83601806e-03, 8.12233239e-02, 1.06867962e-01, 6.70358464e-02,
          4.44813222e-02, 4.79337797e-02, 3.54763567e-02, 3.85817811e-02,
          4.37209122e-02, 1.17199821e-02, -4.88396315e-03,
          9.97971892e-02, 8.82941037e-02, 3.39249186e-02, 1.61002383e-01 ]
      - [ 0., -1.24284867e-04, -1.24284870e-03, -1.24284867e-04,
          1.61174890e-02, -2.85855215e-03, -1.86427307e-04,
          -2.48569739e-03, 2.50603482e-02, 1.75994895e-02,
          1.99609026e-02, 1.70759875e-02, 2.53880098e-02, 2.96381749e-02,
          2.69660484e-02, 2.26914044e-02, -1.49141857e-03,
          1.05868112e-02, 7.96967298e-02, 1.04683638e-01, 6.65658489e-02,
          4.42548282e-02, 4.54976782e-02, 3.71574089e-02, 3.97937521e-02,
          4.26767841e-02, 1.31346518e-02, -4.03925870e-03,
          9.76860225e-02, 8.66943449e-02, 3.45154107e-02, 1.58960342e-01 ]
      - [ 0., 0., 0., 0., 1.33062573e-02, -1.01999182e-03,
          -3.39997263e-04, -1.12199094e-02, 2.62570605e-02,
          2.05543786e-02, 1.23944441e-02, 2.34752651e-02, 2.22543664e-02,
          3.11870202e-02, 3.83269638e-02, 3.06615699e-02, 0.,
          7.26358965e-04, 8.26811492e-02, 1.22429915e-01, 6.18176870e-02,
          5.07214107e-02, 5.03814109e-02, 4.29169275e-02, 4.20360230e-02,
          4.24687453e-02, 1.22862654e-02, -1.15599064e-02,
          1.00252829e-01, 1.04858249e-01, 3.15888338e-02, 1.74248576e-01 ]
      - [ 0., 0., 0., 0., 1.60956513e-02, -1.01754116e-02,
          -1.39911915e-03, -4.83332062e-03, 2.88611669e-02,
          1.90557707e-02, 2.31259353e-02, 2.06283350e-02, 2.78320648e-02,
          2.93699373e-02, 2.75892410e-02, 2.57854182e-02, 0.,
          -3.12199845e-04, 9.16712061e-02, 1.10576659e-01,
          7.27888867e-02, 3.82503010e-02, 4.93160598e-02, 4.15804349e-02,
          3.87359411e-02, 4.54887152e-02, 5.92023972e-03,
          -6.23244001e-03, 1.05118945e-01, 9.71289352e-02,
          3.06071751e-02, 1.71328485e-01 ]
      - [ 0., 0., 0., 0., 1.70928370e-02, -4.10975283e-03,
          -4.45223227e-03, -5.93630970e-03, 2.83738989e-02,
          2.38697752e-02, 1.93033833e-02, 1.88259892e-02, 2.82078497e-02,
          3.17986943e-02, 2.90588588e-02, 2.49594841e-02, 0.,
          2.59453990e-03, 9.03730467e-02, 1.14024885e-01, 7.36745894e-02,
          5.15587181e-02, 4.39100116e-02, 3.78491655e-02, 4.01531160e-02,
          4.76253890e-02, 1.29830828e-02, -1.03885420e-02,
          1.12250224e-01, 9.21477154e-02, 3.46111730e-02, 1.72381297e-01 ]
      - [ 0., 0., 0., 0., 2.82932855e-02, -6.83378289e-03,
          -2.50572041e-02, -6.50836481e-03, 1.72414854e-02,
          1.61377545e-02, 2.70943604e-02, 3.30474377e-02, 4.24399301e-02,
          4.61792201e-02, 2.43761986e-02, 1.96478795e-02, 0.,
          -1.01060653e-02, 9.35210362e-02, 1.32643223e-01,
          8.79747048e-02, 5.54831959e-02, 2.64133606e-02, 4.61869501e-02,
          3.99084575e-02, 3.35204750e-02, 2.14595031e-02,
          -3.15655693e-02, 1.21998392e-01, 1.04165874e-01,
          1.13411294e-02, 2.04717070e-01 ]
      - [ -1.88060082e-03, -2.04556598e-03, -2.63943989e-03,
          -2.63943989e-03, 1.60825867e-02, -2.24352395e-03,
          -1.41869904e-03, -1.81461486e-03, 2.51106713e-02,
          1.90319605e-02, 1.87680162e-02, 1.78542100e-02, 2.56745517e-02,
          2.82340068e-02, 2.82340068e-02, 2.23892480e-02,
          -9.20504611e-03, 1.06057497e-02, 8.07648599e-02,
          1.04531810e-01, 6.49872124e-02, 4.29768786e-02, 4.29438874e-02,
          3.57894078e-02, 3.70331407e-02, 4.06483710e-02, 9.91289783e-03,
          -8.51219334e-03, 9.80511978e-02, 8.72454867e-02,
          3.41377519e-02, 1.52559623e-01 ]
      - [ 0., -8.87810485e-04, -8.24395451e-04, 0., 1.48929255e-02,
          -3.23416688e-03, -2.47318624e-03, -3.23416688e-03,
          2.36518849e-02, 1.93447880e-02, 1.93447880e-02, 1.59139708e-02,
          2.46857442e-02, 2.97467746e-02, 2.89223790e-02, 2.21613124e-02,
          -1.71220594e-03, 5.95140457e-03, 7.82554299e-02,
          1.05516210e-01, 6.32305592e-02, 4.49695885e-02, 4.49695885e-02,
          3.48411165e-02, 3.82719338e-02, 4.15573418e-02, 1.07709477e-02,
          -6.53174846e-03, 9.74291936e-02, 8.63424540e-02,
          3.29822227e-02, 1.55028611e-01 ]
      - [ -7.85577577e-04, -1.39658235e-03, -2.18216004e-03,
          -1.96394394e-03, 1.58067737e-02, 0., 0., -1.39658235e-03,
          2.33332403e-02, 1.79201607e-02, 1.79201607e-02, 1.61651764e-02,
          2.38410886e-02, 2.77993940e-02, 2.77993940e-02, 2.08429340e-02,
          -6.32826379e-03, 1.44101912e-02, 7.53387362e-02,
          1.00282811e-01, 6.21955283e-02, 4.43229750e-02, 4.35373969e-02,
          3.36475857e-02, 3.79775167e-02, 3.97973061e-02, 1.36246132e-02,
          -5.54268574e-03, 9.28938910e-02, 8.27276632e-02,
          3.58403213e-02, 1.47863150e-01 ]
      - [ -2.45887181e-03, -2.45887181e-03, -2.45887181e-03,
          -2.45887181e-03, 1.58653110e-02, -9.22076928e-04,
          -1.04502041e-03, -1.47532299e-03, 2.37169340e-02,
          1.75175965e-02, 1.77634843e-02, 1.64148305e-02, 2.48122513e-02,
          2.86244322e-02, 2.87166405e-02, 2.18914095e-02,
          -9.83548723e-03, 1.24228904e-02, 7.54128471e-02,
          1.04044728e-01, 6.19356260e-02, 4.27610837e-02, 4.29762341e-02,
          3.43720466e-02, 3.62739451e-02, 3.88259552e-02, 1.00254901e-02,
          -7.43808644e-03, 9.46712196e-02, 8.47863704e-02,
          3.33139822e-02, 1.48730993e-01 ]
      - [ 0., 0., 0., 0., 1.45787662e-02, -1.33638678e-03,
          -4.45462298e-04, 0., 2.17365343e-02, 1.57059189e-02,
          1.65968444e-02, 1.67014599e-02, 2.27590743e-02, 2.59313043e-02,
          2.66551804e-02, 2.18141526e-02, 0., 1.27969170e-02,
          7.07407594e-02, 9.71597061e-02, 5.90743758e-02, 4.03008386e-02,
          4.28065620e-02, 3.85156162e-02, 3.70746106e-02, 3.80195305e-02,
          1.32423798e-02, -4.45462298e-04, 8.61328319e-02,
          8.17676410e-02, 3.05209141e-02, 1.50176466e-01 ]
      - [ 0., -2.91627320e-03, -3.42345121e-03, 0., 1.61009803e-02,
          -1.39473926e-03, 0., -3.42345121e-03, 2.47498993e-02,
          1.99496392e-02, 1.90620776e-02, 1.66939665e-02, 2.59582903e-02,
          3.03218123e-02, 2.85466909e-02, 2.22921371e-02,
          -6.33972464e-03, 1.12827895e-02, 8.04555863e-02,
          1.07118927e-01, 6.68091699e-02, 4.59604412e-02, 4.41853181e-02,
          3.55626531e-02, 3.99594754e-02, 4.59079258e-02, 1.17899664e-02,
          -6.84690243e-03, 1.00979649e-01, 8.65948722e-02,
          3.76169756e-02, 1.54900596e-01 ]
      - [ -7.65473582e-04, -9.56841919e-04, -9.56841919e-04,
          -7.65473582e-04, 1.79538354e-02, -1.53094716e-03, 0., 0.,
          2.58086361e-02, 1.71709619e-02, 1.87019091e-02, 1.83278732e-02,
          2.38688588e-02, 2.60956883e-02, 2.60956883e-02, 2.06373408e-02,
          -3.44463112e-03, 1.64228883e-02, 8.00093859e-02,
          9.66975763e-02, 6.68658614e-02, 4.07788642e-02, 4.38407585e-02,
          3.81997414e-02, 3.70428301e-02, 4.02743444e-02, 1.47005720e-02,
          -1.72231556e-03, 9.29441527e-02, 8.37628171e-02,
          3.43419239e-02, 1.55343279e-01 ]
      - [ 0., 0., 0., 0., 1.68732814e-02, -3.69365350e-03,
          -4.38621314e-03, -2.77023995e-03, 2.29279343e-02,
          1.60180740e-02, 1.60180740e-02, 1.64745338e-02, 2.35785209e-02,
          2.81221345e-02, 2.81221345e-02, 2.07663067e-02, 0.,
          6.02317508e-03, 7.14386180e-02, 1.00589097e-01, 6.33797422e-02,
          4.04465571e-02, 3.97539958e-02, 3.44706029e-02, 3.30907255e-02,
          3.52103785e-02, 1.31796272e-02, -7.15645356e-03,
          9.06466693e-02, 8.13810527e-02, 2.39562802e-02, 1.54094607e-01 ]
      - [ -2.28928193e-03, -2.28928193e-03, -2.28928193e-03,
          -2.06035352e-03, 1.62330884e-02, 0., 0., -1.37356913e-03,
          2.33350657e-02, 1.69094671e-02, 1.69094671e-02, 1.51977092e-02,
          2.43496336e-02, 2.70551480e-02, 2.70551480e-02, 2.02705488e-02,
          -8.92819930e-03, 1.48595199e-02, 7.23517090e-02,
          9.87304747e-02, 6.16285093e-02, 4.16753329e-02, 4.16753329e-02,
          3.20343375e-02, 3.48907337e-02, 3.91987450e-02, 1.16545260e-02,
          -5.72320446e-03, 9.16493163e-02, 7.94328749e-02,
          3.38189341e-02, 1.43194571e-01 ]
      - [ 0., 0., 0., 0., 1.53419292e-02, -1.82462612e-03, 0., 0.,
          2.86164898e-02, 1.55938389e-02, 2.06875876e-02, 2.02663224e-02,
          2.50146147e-02, 2.71182284e-02, 2.71182284e-02, 2.17112787e-02,
          0., 1.35173025e-02, 8.51642415e-02, 1.00962348e-01,
          6.89730346e-02, 4.08874452e-02, 4.78058159e-02, 4.19776030e-02,
          4.05742414e-02, 4.06084508e-02, 1.35173025e-02, 0.,
          9.63431746e-02, 8.97834226e-02, 3.44568007e-02, 1.65187091e-01 ]
      - [ -2.59588182e-04, 0., 0., 0., 1.53334020e-02, -2.59588170e-03,
          0., -1.16814685e-03, 2.75458451e-02, 1.83383301e-02,
          1.64563153e-02, 1.95615422e-02, 2.45900806e-02, 2.81082857e-02,
          2.71348301e-02, 2.13963594e-02, -2.59588182e-04,
          1.15693742e-02, 8.19020346e-02, 1.01229548e-01, 6.72097430e-02,
          4.38507348e-02, 4.35911492e-02, 3.97897549e-02, 3.49972062e-02,
          4.29284088e-02, 1.24779325e-02, -1.16814685e-03,
          9.85825434e-02, 8.45490471e-02, 3.21987644e-02, 1.62242606e-01 ]
      - [ 0., 0., 0., -3.10556788e-04, 1.47326263e-02, -1.96685968e-03,
          -1.91510015e-03, -1.86334073e-03, 2.29153261e-02,
          1.73629466e-02, 1.70523897e-02, 1.75229311e-02, 2.35223249e-02,
          2.44681090e-02, 2.84535885e-02, 2.28870939e-02,
          -3.10556788e-04, 8.98732524e-03, 7.48535916e-02,
          9.93311107e-02, 6.11702800e-02, 3.98641974e-02, 4.35908809e-02,
          3.82361263e-02, 3.79726253e-02, 3.86596099e-02, 1.27657661e-02,
          -4.08899738e-03, 8.82687122e-02, 8.59160051e-02,
          3.05333752e-02, 1.52328089e-01 ]
      - [ -9.71132948e-04, -1.17923296e-03, -2.35846592e-03,
          -1.59543275e-03, 1.66416876e-02, -3.53769865e-03, 0.,
          -3.53769865e-03, 2.62332018e-02, 1.85923614e-02,
          1.99103262e-02, 1.78251248e-02, 2.58296151e-02, 3.16206776e-02,
          2.89153792e-02, 2.32294165e-02, -6.10426487e-03,
          9.56629124e-03, 8.25610161e-02, 1.09595083e-01, 6.77333772e-02,
          4.54961099e-02, 4.64672409e-02, 3.59214097e-02, 3.86309102e-02,
          4.28265408e-02, 1.09536238e-02, -7.49159744e-03,
          1.02275863e-01, 8.98802504e-02, 3.49649899e-02, 1.60653129e-01 ]
      - [ -1.02850217e-02, 0., 0., 0., 1.22308359e-02, 0., 0., 0.,
          -5.55947470e-03, -1.72343571e-02, -1.38986763e-02,
          -1.25088133e-02, 3.89162898e-02, 8.89515355e-02,
          8.89515355e-02, 8.00563768e-02, -1.02850217e-02,
          1.22308359e-02, -4.92012985e-02, 2.96875715e-01,
          3.53026241e-02, 7.17171729e-02, 7.50528574e-02, 6.75475672e-02,
          5.58726750e-02, 2.16819458e-02, 1.94581365e-03, 0.,
          1.05073974e-01, 1.42600417e-01, -3.11330333e-02,
          2.80753285e-01 ]
      - [ -9.24549531e-04, -1.02727721e-03, -3.08183167e-04, 0.,
          1.81445088e-02, 0., 0., -2.36273766e-03, 2.61180755e-02,
          1.85942128e-02, 1.85942128e-02, 1.61168799e-02, 2.36882176e-02,
          2.63202395e-02, 2.63202395e-02, 2.19397508e-02,
          -2.26000976e-03, 1.57817714e-02, 7.94233829e-02,
          9.82684419e-02, 6.70262501e-02, 4.38871793e-02, 4.46062721e-02,
          3.56938951e-02, 3.96094136e-02, 4.22824286e-02, 1.61926821e-02,
          -2.67092092e-03, 9.47207510e-02, 8.29710886e-02,
          3.71884257e-02, 1.54025152e-01 ]
      - [ -1.21966354e-03, 0., 0., 0., 2.17691474e-02, -1.50425164e-02,
          -1.01638632e-02, 0., 3.65529470e-02, 2.64876410e-02,
          2.48614233e-02, 1.13219265e-02, 2.35062428e-02, 2.61180457e-02,
          3.34360264e-02, 3.39041837e-02, -1.21966354e-03,
          -3.43723409e-03, 9.92239341e-02, 1.16964489e-01,
          8.06086734e-02, 3.75631750e-02, 4.81335893e-02, 4.52261083e-02,
          4.25034240e-02, 3.98300178e-02, 5.50696626e-03,
          -1.01638632e-02, 1.12664878e-01, 1.03523560e-01,
          2.61426847e-02, 1.85388848e-01 ]
      - [ 0., 0., 0., 0., 1.44405002e-02, -1.03541417e-02,
          -1.03541417e-02, -1.43807540e-02, 3.56422961e-02,
          1.38751194e-02, 1.50397122e-02, 2.98296493e-02, 2.53997445e-02,
          4.13244031e-02, 4.04615551e-02, 1.90999452e-02, 0.,
          -2.06485391e-02, 9.43867788e-02, 1.26285642e-01,
          7.54825398e-02, 4.48453799e-02, 4.51471284e-02, 3.45488414e-02,
          2.37855148e-02, 2.89207194e-02, 4.08635801e-03,
          -2.47348957e-02, 1.16241567e-01, 1.04430862e-01,
          8.20654724e-03, 1.91817343e-01 ]
      - [ 0., 0., 0., 0., -5.52693568e-02, -3.48695107e-02, 0., 0.,
          9.38266143e-02, -4.83747199e-02, -8.15945044e-02,
          -4.50223982e-02, -2.77817920e-02, 1.08202040e-01,
          1.08784482e-01, 9.79060307e-02, 0., -9.01388600e-02,
          -8.11649859e-02, 2.87110746e-01, 1.07754562e-02,
          2.49578077e-02, 2.71899812e-02, 5.28836325e-02,
          -1.85579900e-02, -7.61565045e-02, -9.01388600e-02, 0.,
          1.25872120e-01, 8.00736099e-02, -1.64838731e-01,
          2.80645639e-01 ]
      - [ 0., 0., 0., 0., 1.76925287e-02, 0., -9.30158701e-03,
          -1.16866082e-02, 2.87720412e-02, 1.94632262e-02,
          2.18482483e-02, 1.82201248e-02, 2.27227584e-02, 3.69606167e-02,
          4.22076657e-02, 2.61340626e-02, 0., -3.29566607e-03,
          8.83036405e-02, 1.28025100e-01, 6.91873357e-02, 5.64238429e-02,
          5.47543280e-02, 3.26675773e-02, 4.79823090e-02, 3.28843966e-02,
          1.76925287e-02, -2.09881961e-02, 1.07918650e-01,
          1.08410105e-01, 3.20098847e-02, 1.81023180e-01 ]
      - [ -2.08726972e-01, -1.32887706e-01, -1.43413901e-01,
          -7.31548741e-02, 1.38415009e-01, 3.17097030e-04,
          7.11594999e-01, 7.06331789e-01, -6.24701641e-02,
          -6.88281059e-01, 1.10826075e+00, 2.07987055e-01,
          4.35081899e-01, 3.49033564e-01, -2.12205005e+00,
          -2.79620230e-01, -5.58183372e-01, 1.55665874e+00,
          5.65496802e-01, -1.61755455e+00, 3.02299887e-01,
          -4.71818030e-01, -4.45608407e-01, 5.61543584e-01,
          6.20230615e-01, 3.85240912e-01, -2.02882573e-01,
          1.20135796e+00, 3.33639644e-02, -1.08542228e+00,
          1.13189173e+00, -1.18547428e+00 ]
      - [ 2.76380870e-02, 4.37131189e-02, -9.24459845e-02,
          3.03520076e-02, 6.67612851e-01, -8.61926019e-01,
          -5.23522675e-01, 4.71836627e-01, -5.77992976e-01,
          -1.13486521e-01, 6.13569677e-01, -1.84513435e-01,
          6.88547969e-01, 7.89782643e-01, -6.34478033e-01,
          -2.44120225e-01, 9.25722905e-03, -2.45999083e-01,
          -2.62423307e-01, 5.99732399e-01, 8.05805862e-01,
          -1.41916752e-01, -6.36876941e-01, 7.35548437e-02,
          -4.64838445e-01, 8.18908066e-02, -1.22961909e-01,
          -1.13779992e-01, 7.86851108e-01, -4.49542075e-01,
          -8.85365486e-01, 9.85932708e-01 ]
      - [ 7.69391060e-02, 2.56463680e-02, 0., 1.02585472e-01,
          2.05170959e-01, -4.09784347e-01, 1.55550793e-01,
          5.13484895e-01, 7.58240446e-02, -2.00153172e-01,
          6.15512848e-01, 1.42727613e-01, 3.19464535e-01, 6.46734476e-01,
          -4.68324959e-01, 5.57542779e-04, 2.05170944e-01,
          4.64422226e-01, 6.33911312e-01, 4.98431563e-01, 6.77398741e-01,
          6.24432862e-02, 3.02738637e-01, 7.59355426e-01, 2.83225179e-01,
          3.77447665e-01, -1.02027923e-01, 7.71621227e-01,
          8.41869950e-01, 2.90472984e-01, 1.61126196e-01, 1.64081001e+00 ]
      - [ 5.54516129e-02, 9.32912342e-03, -9.15474743e-02,
          6.47807345e-02, 2.00837731e-01, -2.10559189e-01,
          1.52622715e-01, 4.82324362e-01, 1.12646975e-01,
          -1.55456319e-01, 4.43612903e-01, 1.12646975e-01,
          2.24160522e-01, 4.77572650e-01, -3.66189897e-01,
          8.51827338e-02, 3.80139872e-02, 6.25225604e-01, 5.13450503e-01,
          4.20726031e-01, 5.93096972e-01, 1.20886259e-01, 1.38498217e-01,
          7.44934797e-01, 3.73688072e-01, 2.86107689e-01, 5.50592728e-02,
          6.08180344e-01, 6.58923864e-01, 2.75252730e-01, 2.30220139e-01,
          1.36719584e+00 ]
      - [ 1.32609978e-01, 6.63049892e-02, 0., 2.65219957e-01,
          -5.05478203e-01, -2.19556168e-01, 7.78223157e-01,
          -3.47003013e-01, -1.61055505e-01, -5.09860516e-01,
          -7.43593216e-01, 1.06087983e+00, -9.98607516e-01,
          8.64080131e-01, 0., 1.12718487e+00, 4.64134932e-01,
          -2.93813914e-01, -3.53629440e-01, 9.92657721e-01,
          -1.53253114e+00, 2.00968549e-01, 3.46299149e-02,
          2.10628152e+00, 2.96645403e-01, -4.65024769e-01,
          -5.26119351e-01, 6.96440220e-01, -8.05443168e-01,
          1.44447148e+00, -6.94786668e-01, 1.50413477e+00 ]
      - [ 6.35481700e-02, 8.58249068e-02, -1.94442824e-01,
          1.16965935e-01, 3.03881228e-01, -1.08270824e+00,
          1.96506396e-01, 7.92920053e-01, 2.98675448e-01,
          -4.71474648e-01, 1.34226954e+00, 2.01712176e-01,
          4.31305677e-01, 5.05241573e-01, -1.12175167e+00,
          -7.37484843e-02, 7.18961805e-02, 2.10599571e-01,
          1.37118244e+00, -2.58952767e-01, 1.09741044e+00,
          -9.63116229e-01, 2.22581401e-01, 1.03784966e+00,
          2.49361038e-01, 2.73303390e-01, -6.29453897e-01,
          9.11949635e-01, 7.63748288e-01, 3.48481417e-01,
          -1.54070035e-02, 1.41013193e+00 ]
      - [ 8.00869837e-02, 1.60173967e-01, -3.74630392e-02,
          1.65334865e-01, 5.65308094e-01, -7.55985856e-01,
          -4.42776322e-01, 1.03634655e+00, 9.99393612e-02,
          8.00869837e-02, 1.28060043e+00, -6.62049837e-03,
          5.93052387e-01, 1.11787486e+00, -2.10324383e+00,
          1.59248561e-02, 3.68132770e-01, 4.02892411e-01, 1.45400620e+00,
          -3.76391679e-01, 1.33838642e+00, 6.02150023e-01,
          -1.30288291e+00, 1.21098554e+00, 6.20626330e-01,
          3.95697892e-01, 4.95831519e-02, 7.21442342e-01, 1.89095366e+00,
          -8.13339114e-01, 1.61925092e-01, 1.68671298e+00 ]
      - [ 1.54993506e-02, 3.09987012e-02, 0., -1.09407179e-01,
          3.62411261e-01, -5.11478543e-01, -5.16948938e-01,
          4.22129363e-01, -3.04060787e-01, -5.01449555e-02,
          1.94653586e-01, 2.47989610e-01, 4.18482453e-01, 3.66514057e-01,
          -5.86696029e-01, -3.18192542e-01, -6.29091263e-02,
          -2.43886948e-01, 8.84374455e-02, -1.19892068e-01,
          4.92332220e-01, -1.64110750e-01, -9.08991396e-01,
          2.42519200e-01, -6.19518161e-01, -2.58018613e-01,
          -1.02569222e-01, -2.04226717e-01, 4.30790782e-01,
          -4.62245315e-01, -8.83918881e-01, 5.45668125e-01 ]
      - [ -7.35812485e-02, -1.15074739e-01, -1.68460757e-01,
          -1.06531374e-01, 2.00267777e-01, -1.43191636e-01,
          4.87934500e-02, 4.41547692e-01, 1.50852606e-01,
          -1.36372971e-03, 3.37884158e-01, 1.80333227e-01,
          2.60031223e-01, 3.73421341e-01, -1.68460757e-01,
          1.00314379e-01, -4.63648111e-01, 5.47417223e-01,
          6.67706251e-01, 5.65306187e-01, 5.37570417e-01, 1.13791242e-01,
          4.97560836e-02, 6.15663946e-01, 2.21425682e-01, 2.00929582e-01,
          -1.31579831e-01, 2.15349019e-01, 7.82941520e-01,
          4.50071037e-01, 2.42122278e-01, 1.07465923e+00 ]
      - [ 5.28926253e-02, -4.67334948e-02, -5.97669147e-02,
          7.05235004e-02, 1.38857752e-01, -2.34470204e-01,
          -2.06228588e-02, 4.00241286e-01, 6.14161529e-02,
          1.76308751e-02, 4.23141003e-01, 6.14161529e-02, 2.19714567e-01,
          5.29728949e-01, -1.47118554e-01, 9.35983509e-02,
          1.69157181e-02, 2.84005910e-01, 5.63604176e-01, 6.95923328e-01,
          4.72881138e-01, 2.66156137e-01, 1.95632696e-01, 6.25779271e-01,
          3.35161805e-01, 2.87246108e-01, -8.94533172e-02,
          3.90375048e-01, 8.28490674e-01, 4.31036919e-01, 1.85678855e-01,
          1.37477016e+00 ]
      - [ -4.56005242e-03, -4.86751124e-02, -9.06828791e-02,
          -4.41668779e-02, 1.57287300e-01, 0., 8.42573419e-02,
          2.78992355e-01, 9.17537957e-02, 9.36192740e-03, 2.24686265e-01,
          9.17537957e-02, 1.57114565e-01, 2.91394293e-01,
          -3.62731516e-02, 6.27352744e-02, -1.88084930e-01,
          5.20536959e-01, 4.17555779e-01, 4.74970996e-01, 4.01595622e-01,
          2.52081126e-01, 1.81987584e-01, 3.89314532e-01, 2.82861501e-01,
          2.06566975e-01, 1.04052119e-01, 2.28399962e-01, 5.49624622e-01,
          3.42902184e-01, 3.18305552e-01, 9.06673253e-01 ]
      - [ -8.19825828e-02, -1.03237331e-01, -1.13864705e-01,
          -7.13552162e-02, 1.67570889e-01, -4.26992625e-02,
          4.72538508e-02, 3.14266562e-01, 1.01719134e-01,
          -2.35320367e-02, 2.32283995e-01, 1.01719134e-01,
          2.02679172e-01, 3.44915152e-01, -2.27729399e-02,
          1.01719134e-01, -3.70439827e-01, 4.86392051e-01,
          4.12190229e-01, 6.26540542e-01, 3.89986664e-01, 1.75446525e-01,
          1.42900199e-01, 4.46349651e-01, 2.09321290e-01, 1.55045792e-01,
          -6.03483096e-02, 1.76300541e-01, 6.25781476e-01,
          4.12949324e-01, 2.13306576e-01, 9.41376388e-01 ]
      - [ 1.96502749e-02, 6.55009132e-03, 0., 2.62003653e-02,
          9.82513726e-02, -2.62003653e-02, 4.09380682e-02,
          2.11240441e-01, 5.24007306e-02, -3.27504575e-02,
          1.44102007e-01, 1.04801461e-01, 1.14626601e-01, 1.89952642e-01,
          -1.31001826e-02, 1.04801461e-01, 5.24007306e-02,
          3.24229509e-01, 2.68553734e-01, 3.96280527e-01, 2.84929007e-01,
          1.37551904e-01, 1.71939895e-01, 4.47043717e-01, 2.42353395e-01,
          1.49014577e-01, 9.82513726e-02, 2.78378874e-01, 3.24229538e-01,
          3.40604752e-01, 1.26089275e-01, 9.15375233e-01 ]
      - [ 6.29541352e-02, -2.20723137e-01, -2.83744007e-01,
          8.39388520e-02, 2.14667961e-01, -1.15599401e-01,
          1.88862413e-01, 4.71705616e-01, 8.35385174e-02, 5.22115733e-03,
          4.14306283e-01, 8.35385174e-02, 2.82893300e-01, 5.76829374e-01,
          -3.04762065e-01, 4.67568859e-02, -3.57574165e-01,
          7.59636581e-01, 5.86604476e-01, 6.01717472e-01, 6.44053996e-01,
          2.45727986e-01, 1.46626234e-02, 6.85939908e-01, 4.08417910e-01,
          5.60915709e-01, -5.87004833e-02, 4.60762918e-01,
          9.48482394e-01, 2.39839688e-01, 4.92790490e-01, 1.09759402e+00 ]
      - [ -2.52145738e-03, -3.02574895e-02, -4.01140973e-02,
          7.33514922e-03, 2.26701975e-01, -6.41825572e-02,
          8.87094587e-02, 3.54837835e-01, 1.57705709e-01,
          -5.43259494e-02, 2.36558571e-01, 1.57705709e-01,
          1.22978367e-01, 1.84524864e-01, -1.60456389e-01,
          1.93120781e-02, -6.55578971e-02, 6.06066704e-01,
          4.97644037e-01, 1.66358888e-01, 5.04864633e-01, 3.57588343e-02,
          1.24697536e-01, 5.39190769e-01, 1.89166650e-01, 1.64697036e-01,
          1.29740462e-01, 4.10768390e-01, 4.10883039e-01, 2.53119975e-01,
          2.06759542e-01, 9.97752249e-01 ]
      - [ 2.43548881e-02, 8.11829604e-03, 0., 3.24731842e-02,
          1.86720818e-01, -1.35708824e-01, -8.80895630e-02,
          1.90477028e-01, 8.11223760e-02, -4.91338633e-02,
          1.37586951e-01, 1.02326877e-01, 1.43403038e-01, 2.84140348e-01,
          0., 6.62792251e-02, 6.49463683e-02, 1.53399482e-01,
          2.71902353e-01, 4.93822604e-01, 4.35601145e-01, 1.07415959e-01,
          4.94973697e-02, 3.91556323e-01, 9.25122276e-02, 3.86527851e-02,
          8.34851637e-02, 1.34860665e-01, 4.59531933e-01, 3.06193054e-01,
          -1.35345265e-01, 1.11941600e+00 ]
      - [ -5.15956916e-02, -6.48777485e-02, -7.15187788e-02,
          -3.78027819e-02, 1.52743682e-01, 0., 5.97692654e-02,
          1.96165785e-01, 1.06256470e-01, 6.64102938e-03, 1.59384713e-01,
          6.33452013e-02, 1.69346258e-01, 2.32436031e-01, 0.,
          6.33452013e-02, -2.25795016e-01, 4.08678740e-01,
          3.35627407e-01, 4.65127468e-01, 3.76750737e-01, 1.74199313e-01,
          1.47635192e-01, 2.85053402e-01, 1.71134219e-01, 1.97953776e-01,
          3.62702347e-02, 1.46613508e-01, 5.14679790e-01, 2.86075115e-01,
          2.25795016e-01, 7.57843614e-01 ]
      - [ 4.76283655e-02, 1.58761200e-02, 0., 6.35044798e-02,
          8.73186737e-02, -1.11132845e-01, 1.42885089e-01,
          5.71540356e-01, 2.54017919e-01, -2.94369727e-01,
          3.81026924e-01, 2.54017919e-01, 1.08486846e-01, 1.85221404e-01,
          -3.70442808e-01, -4.23363112e-02, 1.27008960e-01,
          6.90611243e-01, 5.94693065e-01, -1.19070821e-01,
          4.97451842e-01, -2.04405040e-01, 1.53469175e-01,
          8.46726418e-01, 2.75186151e-01, 2.05067042e-02, 3.96903008e-02,
          7.77929962e-01, 2.53356487e-01, 2.22265750e-01, 1.18409455e-01,
          1.17483282e+00 ]
      - [ 2.97185685e-02, 1.51199726e-02, 0., 6.04798906e-02,
          1.17049463e-01, -1.56413510e-01, 1.36079758e-01,
          4.73932922e-01, 2.41919562e-01, -8.26384723e-02,
          1.51721120e-01, 2.41919562e-01, 1.35297701e-01, 2.98489124e-01,
          -2.89364994e-01, -8.34205188e-03, 1.05318435e-01,
          5.70648670e-01, 5.52921772e-01, 1.36079744e-01, 5.23985326e-01,
          7.45571181e-02, -1.56409713e-03, 7.67990351e-01,
          1.66841745e-02, 2.49218896e-01, 5.47449943e-03, 6.70492589e-01,
          5.93068004e-01, 9.59336534e-02, 4.87489291e-02, 1.31621969e+00 ]
      - [ 2.77476404e-02, 9.24921315e-03, 0., 2.42183339e-02,
          1.12633519e-01, -8.09306130e-02, 4.44205897e-03,
          2.56300569e-01, 7.55758062e-02, -1.20483171e-02,
          1.87905073e-01, 1.47987410e-01, 1.44275561e-01, 1.53342217e-01,
          -6.38925890e-03, 1.47987410e-01, 6.12151884e-02,
          2.92445511e-01, 3.99419963e-01, 4.39215928e-01, 3.60232562e-01,
          6.96124956e-02, 1.85957864e-01, 5.76493740e-01, 2.82709509e-01,
          1.60887644e-01, 6.86997473e-02, 2.84960955e-01, 3.61145318e-01,
          4.77490634e-01, 9.93682072e-02, 1.09292841e+00 ]
      - [ -2.10389644e-02, -1.07922114e-01, -2.78181911e-01,
          -6.35065138e-02, 2.99610496e-01, -4.17272866e-01,
          2.80519575e-01, 7.04805434e-01, 1.71428606e-01,
          -2.55194873e-01, 6.17143095e-01, 1.71428606e-01,
          2.71168917e-01, 8.53636622e-01, -5.56363821e-01,
          6.50649741e-02, -4.70649540e-01, 8.67662668e-01,
          7.04805434e-01, 6.33506596e-01, 7.21169055e-01, 7.32467845e-02,
          6.31168857e-02, 8.77792478e-01, 2.43896261e-01, 2.32987151e-01,
          -2.46623412e-01, 6.43636584e-01, 1.04103947e+00,
          2.97272772e-01, 2.25194946e-01, 1.51013029e+00 ]
      - [ -4.07974161e-02, 0., 0., 0., -1.89806186e-02, 7.19954399e-03,
          1.19992401e-02, 7.67951384e-02, -9.51212496e-02,
          -1.48354247e-01, -1.00357287e-01, -9.51212496e-02,
          -2.01805420e-02, 5.27966581e-02, 3.59977200e-03,
          3.83975692e-02, -4.07974161e-02, 7.70132989e-02,
          -4.38954055e-01, 7.46134594e-02, -1.75079808e-01,
          -8.83580446e-02, -8.47582743e-02, 2.00714581e-02,
          -9.55575928e-02, -1.56535551e-01, -5.25784902e-02,
          8.87943804e-02, -2.10859373e-01, -1.53481200e-01,
          -2.29512736e-01, -9.86119062e-02 ]
      - [ -1.01042818e-02, -3.77507247e-02, -1.47354128e-02,
          4.54692766e-02, 2.61448354e-01, 0., 1.02305867e-01,
          2.96251982e-01, 1.81877106e-01, 1.13673192e-02, 2.72815645e-01,
          8.36410150e-02, 1.13041677e-01, 2.01383978e-01,
          -1.96472183e-01, 6.15378991e-02, -1.71211418e-02,
          6.60006166e-01, 5.49701095e-01, 1.79491401e-01, 5.46262860e-01,
          1.75000563e-01, 1.63913921e-01, 4.86900151e-01, 3.24249297e-01,
          2.72184163e-01, 2.13593334e-01, 4.29291725e-01, 5.07670105e-01,
          2.21522376e-01, 3.86488855e-01, 9.85588551e-01 ]
      - [ -3.33979130e-02, 5.47695607e-02, 0., 9.08631831e-02,
          4.82041419e-01, -9.06377673e-01, -6.52581096e-01,
          7.35866010e-01, 5.44066429e-01, -1.01391636e-01,
          6.65476680e-01, -6.69694543e-01, -3.12315375e-01,
          -3.82226892e-02, -1.51498571e-01, 4.69508320e-01,
          1.12234831e-01, -3.41051251e-01, 4.38456923e-01,
          -3.25283110e-02, 6.80394471e-01, -9.91222441e-01,
          -1.38603002e-01, 6.26542926e-01, 1.95209399e-01,
          -9.75424945e-01, -4.02964622e-01, 1.74148202e-01,
          9.21367034e-02, 3.13791841e-01, -9.94873762e-01,
          1.17198563e+00 ]
      - [ -3.32177170e-02, 2.15793923e-02, 0., 6.08587340e-02,
          -3.13992277e-02, -3.56423646e-01, -7.58915544e-02,
          -4.77655865e-02, 4.31587875e-01, -6.88237131e-01,
          -1.30203709e-01, 3.45270276e-01, -9.89257321e-02,
          7.87647784e-01, -3.81882489e-02, -4.86021250e-01,
          4.92204130e-02, -5.11479914e-01, -4.15827967e-02,
          1.64512619e-01, 2.68045247e-01, -2.35433578e-01,
          -2.44283453e-01, -1.27657875e-01, -1.00586629e+00,
          -8.02195668e-01, -3.99461150e-01, -6.27983510e-02,
          4.32072788e-01, -3.09142977e-01, -1.25075614e+00,
          9.11426067e-01 ]
      - [ -1.49524491e-02, 2.55456730e-03, 0., 1.02182692e-02,
          -5.89677431e-02, -2.09056735e-01, 5.25772013e-02,
          2.05700248e-01, 1.13068394e-01, -2.96998173e-01,
          -1.54479146e-01, -1.52935073e-01, -1.58657879e-01,
          1.63413957e-01, 5.81034785e-03, 1.05404690e-01,
          -2.17961334e-03, -9.74702556e-03, -4.91344005e-01,
          1.15971141e-01, -1.19509690e-01, -3.40086401e-01,
          -9.60915983e-02, 1.68388128e-01, -2.73083657e-01,
          -3.92860591e-01, -2.80422390e-01, 2.68495709e-01,
          -1.79173693e-01, -1.96199179e-01, -6.07956946e-01,
          2.20657259e-01 ]
      - [ 9.32761356e-02, 7.39195719e-02, 0., -1.22482724e-01,
          3.69879335e-01, 0., -8.88911486e-01, 3.42512906e-01,
          3.72413099e-02, -1.19228458e+00, 1.20051134e+00,
          -2.58437037e-01, -9.57116604e-01, 1.65337038e+00, 0.,
          -1.84517473e-01, 4.47129868e-02, -1.76519036e-01,
          -2.12969184e-01, 5.11736751e-01, -4.56719637e-01,
          5.35005510e-01, 3.11599940e-01, -2.22924411e-01,
          1.10927010e+00, -3.16079521e+00, 5.37075043e-01,
          -6.68881357e-01, -4.58788961e-01, 7.57556856e-01,
          -8.80684614e-01, 1.04764557e+00 ]
      - [ 5.80900759e-02, 4.30700518e-02, -1.94383319e-02,
          1.06658274e-02, 3.27486306e-01, -5.39071977e-01,
          -4.49226648e-01, 1.43084899e-01, -3.60389233e-01,
          7.42170438e-02, 8.32015872e-02, -9.98377651e-02,
          3.68438125e-01, 4.50170428e-01, 1.09908208e-01,
          -1.07778294e-03, 9.23876092e-02, -5.17727375e-01,
          -3.02808434e-01, 9.27438915e-01, 3.93625200e-01,
          2.83855330e-02, -2.75555164e-01, 5.28351180e-02,
          -3.98858100e-01, 4.09435388e-03, -1.10425547e-01,
          -3.14914286e-01, 5.32436371e-01, 9.21942368e-02,
          -8.30879986e-01, 1.03017080e+00 ]
      - [ 1.73963122e-02, 3.47926244e-02, 3.47926244e-02, 3.47926244e-02,
          1.06863044e-01, -2.56784678e-01, -4.71645333e-02,
          1.17236011e-01, 2.52300445e-02, -2.32311059e-03,
          1.39170498e-01, 6.71540722e-02, 1.90494999e-01, 4.16863143e-01,
          2.80610055e-01, 1.43330485e-01, 1.21774174e-01,
          -7.98501819e-02, 2.29231507e-01, 1.03129864e+00,
          3.39984387e-01, 1.92547962e-01, 4.07408625e-01, 3.62513155e-01,
          4.31126133e-02, 1.75799981e-01, -9.77326930e-02,
          1.39656723e-01, 6.30265117e-01, 6.30265117e-01,
          -1.67101815e-01, 1.46955621e+00 ]
      - [ 1.44339390e-02, 2.22636703e-02, -3.71742062e-02,
          2.22636703e-02, 1.26875684e-01, -1.51896790e-01,
          -9.90631245e-03, 1.78245515e-01, 6.27740100e-02,
          -1.00084338e-02, 1.15471512e-01, 6.27740100e-02,
          1.53666973e-01, 3.54142129e-01, 2.12151647e-01, 1.80083811e-01,
          2.17870641e-02, 1.43318087e-01, 2.31011093e-01, 9.00044560e-01,
          3.57750624e-01, 2.14500591e-01, 2.80542642e-01, 4.43367004e-01,
          1.58092469e-01, 1.56015903e-01, 1.16765089e-02, 1.53428659e-01,
          5.60574710e-01, 5.70481002e-01, -5.63400164e-02,
          1.35250080e+00 ]
      - [ 1.00008987e-01, 5.83385788e-02, 5.83385788e-02, 7.50067458e-02,
          -1.81467935e-01, -6.55972958e-02, -2.18657646e-02,
          -2.71529764e-01, -1.03952028e-01, -1.86396912e-02,
          -6.10090673e-01, 3.33363295e-01, -3.12124848e-01,
          1.90877363e-01, 6.66726589e-01, 4.50040460e-01, 2.91692913e-01,
          -5.40460765e-01, -3.99319053e-01, 9.95519578e-01,
          -4.97535825e-01, 1.64978907e-01, 9.31087062e-02,
          5.86880744e-01, -1.25638559e-01, -2.77623504e-01,
          -8.87176245e-02, -1.60050198e-01, -2.43839175e-01,
          8.40039730e-01, -7.16193438e-01, 1.06362605e+00 ]
      - [ 3.94699946e-02, 7.89399892e-02, -6.83134496e-02,
          5.43977506e-02, 1.26759395e-01, -9.08062935e-01,
          -1.71795681e-01, 2.84133345e-01, 1.15626812e-01,
          -7.69159049e-02, 3.15759957e-01, 1.15626812e-01,
          2.81982750e-01, 3.20820183e-01, 3.20820183e-01, 2.81982750e-01,
          1.04494266e-01, -6.68965876e-01, 4.70097631e-01,
          1.20560575e+00, 5.63838899e-01, -5.85218608e-01,
          3.96471024e-01, 7.36140668e-01, -2.70850152e-01,
          8.76689106e-02, -6.62893593e-01, 9.84219164e-02,
          6.41514063e-01, 1.03418970e+00, -8.41014564e-01,
          1.95224679e+00 ]
      - [ 5.86339571e-02, 1.17267914e-01, 7.73932934e-02, 3.75186689e-02,
          2.50888288e-01, -6.01419032e-01, -7.41255164e-01,
          2.98872977e-01, -1.69098824e-01, 4.69071656e-01,
          -1.72588602e-01, -6.94122910e-02, 3.66703302e-01,
          5.14238596e-01, 3.32603037e-01, 6.26346648e-01, 2.90813804e-01,
          -7.92912960e-01, 5.79718351e-02, 1.83989143e+00,
          5.07126570e-01, 4.99159098e-01, -5.03847361e-01,
          8.93325865e-01, -8.90270919e-02, 1.32038549e-01,
          -1.74628913e-01, -3.27470213e-01, 1.18091488e+00,
          7.16948926e-01, -1.04619110e+00, 2.44195533e+00 ]
      - [ 4.45207395e-02, 3.33102234e-02, 2.67536063e-02,
          -6.85531348e-02, 2.29527056e-01, -4.23228085e-01,
          -4.97915417e-01, 2.22570434e-01, -2.47047588e-01,
          7.03361258e-02, -7.90384933e-02, 2.01076269e-01,
          2.86357462e-01, 2.52744406e-01, -8.43465477e-02,
          -1.23424709e-01, 3.60314213e-02, -4.69046086e-01,
          -5.46737127e-02, 3.31330538e-01, 3.13357651e-01,
          -6.68373555e-02, -6.34546816e-01, 2.31668845e-01,
          -5.81170559e-01, -2.09774956e-01, -1.15870059e-01,
          -3.17144513e-01, 3.62390399e-01, -8.57334211e-02,
          -9.29845870e-01, 7.73488224e-01 ]
      - [ -6.96718022e-02, -6.54683560e-02, -9.10405591e-02,
          -9.10405591e-02, 1.21006615e-01, -9.66060981e-02,
          -6.10891543e-02, 1.64959759e-01, 8.72911364e-02,
          7.90892914e-02, 6.77238703e-02, 1.07180633e-01, 1.69133916e-01,
          2.59471446e-01, 2.59471446e-01, 1.60609841e-01,
          -3.17221284e-01, 1.28271103e-01, 3.41284931e-01,
          8.48686576e-01, 3.07759851e-01, 1.76486284e-01, 1.75065592e-01,
          3.41709673e-01, 6.20558187e-02, 9.60934684e-02,
          -1.10739626e-01, -7.82105327e-02, 5.94985843e-01,
          5.94985843e-01, -1.08820917e-02, 1.01190352e+00 ]
      - [ 1.14472890e-02, -1.57115944e-02, -1.29540106e-02,
          2.28945781e-02, 6.90059289e-02, -1.40636772e-01,
          -1.07545756e-01, 1.05479941e-01, 2.21743751e-02,
          9.15783122e-02, 9.15783122e-02, 2.21743751e-02, 1.25408456e-01,
          3.25366437e-01, 2.89517850e-01, 1.50226712e-01, 5.67626115e-03,
          -7.36966953e-02, 2.27505371e-01, 8.90519440e-01,
          2.28036001e-01, 2.60596395e-01, 2.60596395e-01, 3.00775588e-01,
          1.12615548e-01, 1.32335573e-01, -7.58951455e-02,
          7.87474774e-03, 5.64527631e-01, 5.53497255e-01,
          -6.50259033e-02, 1.11503029e+00 ]
      - [ -1.67134386e-02, -2.80408151e-02, -5.22780791e-02,
          -4.55455035e-02, 1.07387997e-01, 0., 0., 1.18673734e-01,
          5.84831499e-02, 6.01905845e-02, 6.01905845e-02, 5.84831499e-02,
          1.12454779e-01, 2.21355870e-01, 2.21355870e-01, 1.08415239e-01,
          -1.42577842e-01, 2.26061732e-01, 2.37347469e-01,
          6.63581729e-01, 2.61612475e-01, 2.53505647e-01, 2.29268387e-01,
          2.40026623e-01, 1.51892394e-01, 1.27099857e-01, 6.26337379e-02,
          2.08501555e-02, 4.52484399e-01, 4.48444873e-01, 1.20381169e-01,
          8.64031971e-01 ]
      - [ -6.98892772e-02, -6.20347448e-02, -6.20347448e-02,
          -6.20347448e-02, 1.04613498e-01, -2.91539263e-02,
          -3.30411159e-02, 1.22226074e-01, 5.93898520e-02,
          3.95130888e-02, 4.72874679e-02, 5.93898520e-02, 1.34007871e-01,
          2.40735278e-01, 2.43650675e-01, 1.34007871e-01,
          -2.55993515e-01, 1.64644539e-01, 2.05580249e-01,
          7.52401650e-01, 2.28121936e-01, 1.89059705e-01, 1.95862278e-01,
          2.53589064e-01, 8.22521374e-02, 7.84450993e-02,
          -5.64644597e-02, -3.48845273e-02, 4.73646104e-01,
          4.84335870e-01, 2.46055219e-02, 8.42027485e-01 ]
      - [ 5.36178378e-03, 1.07235676e-02, 1.07235676e-02, 1.07235676e-02,
          6.76095411e-02, -1.98130682e-02, -1.36214849e-02,
          9.67035964e-02, 3.27579416e-02, 1.31746680e-02, 3.29877362e-02,
          7.23840818e-02, 8.36948901e-02, 1.47219256e-01, 1.67032331e-01,
          1.23321027e-01, 3.75324860e-02, 1.30878583e-01, 1.51304424e-01,
          5.21267474e-01, 1.89424142e-01, 1.51304424e-01, 1.97122142e-01,
          3.03132266e-01, 1.41857475e-01, 9.39716324e-02, 6.38818219e-02,
          1.04529247e-01, 2.76846766e-01, 3.95725191e-01, 1.27278529e-02,
          8.28255177e-01 ]
      - [ 1.58746243e-02, -1.37167856e-01, -1.66544735e-01,
          3.17492485e-02, 1.30214825e-01, -8.07864368e-02, 0.,
          1.43010408e-01, 3.80460992e-02, 1.15980655e-01, 6.45711049e-02,
          3.80460992e-02, 1.88855022e-01, 4.13699239e-01, 3.10880154e-01,
          1.63150251e-01, -2.56088734e-01, 1.92438811e-01,
          2.56643951e-01, 1.07658458e+00, 3.72990549e-01, 3.11725616e-01,
          2.08906502e-01, 3.75956029e-01, 1.62809521e-01, 3.36584926e-01,
          -7.18648657e-02, 8.21490493e-03, 7.56581068e-01,
          5.76647639e-01, 9.97653231e-02, 1.16981351e+00 ]
      - [ -1.83369704e-02, -1.60713978e-02, -1.60713978e-02,
          -9.20388568e-03, 1.82661712e-01, -5.49401157e-02, 0.,
          1.96361348e-01, 1.23296656e-01, 1.81245729e-02, 7.30646849e-02,
          1.23296656e-01, 1.00180745e-01, 1.64041549e-01, 1.64041549e-01,
          9.15963575e-02, -5.96836545e-02, 3.24082941e-01,
          3.37782562e-01, 5.19860148e-01, 3.87802124e-01, 1.11154594e-01,
          2.21034825e-01, 4.02050465e-01, 9.13839638e-02, 1.09101422e-01,
          9.33132321e-02, 1.71086058e-01, 4.05643553e-01, 4.51999247e-01,
          3.62491459e-02, 1.08579290e+00 ]
      - [ -1.14403777e-02, 2.76715873e-04, 1.06975771e-02,
          9.53970384e-03, 1.18554510e-01, -7.23982379e-02,
          -8.31505880e-02, 8.79103094e-02, 4.81263474e-02,
          1.54133635e-02, 1.65712368e-02, 5.53498343e-02, 9.44044441e-02,
          1.95614934e-01, 1.95614934e-01, 9.15097669e-02, 9.07361414e-03,
          5.09159975e-02, 1.35460779e-01, 5.77144086e-01, 2.49644920e-01,
          1.38906777e-01, 1.39733166e-01, 2.44309604e-01, 2.42423899e-02,
          3.62069122e-02, 3.49926054e-02, 2.49969978e-02, 3.53559107e-01,
          3.59045774e-01, -1.23564221e-01, 8.96158755e-01 ]
      - [ -4.89436574e-02, -4.34743091e-02, -4.34743091e-02,
          -3.80330086e-02, 1.09386966e-01, 0., 0., 8.49431828e-02,
          7.38361999e-02, 4.37547900e-02, 4.37547900e-02, 4.11883965e-02,
          1.25795007e-01, 1.80488497e-01, 1.80488497e-01, 9.31472108e-02,
          -1.73925295e-01, 1.94330156e-01, 2.02534184e-01,
          5.79919219e-01, 2.60074526e-01, 1.80768967e-01, 1.80768967e-01,
          1.81245789e-01, 8.79583359e-02, 1.31516799e-01, 1.69689991e-02,
          3.43586551e-03, 4.23874527e-01, 3.58578891e-01, 8.75095800e-02,
          7.15348721e-01 ]
      - [ 1.61804054e-02, 3.23608108e-02, 3.23608108e-02, 3.23608108e-02,
          6.20248802e-02, -1.04633287e-01, 0., 3.47878695e-01,
          2.18435466e-01, -1.62658006e-01, 1.29443243e-01,
          2.18435466e-01, 9.31272209e-02, 1.85175747e-01, 1.85175747e-01,
          9.31272209e-02, 1.13262832e-01, 3.05270284e-01, 4.03656155e-01,
          5.56605935e-01, 3.89767915e-01, -4.97547425e-02,
          3.46979797e-01, 6.91802204e-01, 1.34117603e-01,
          -3.71699780e-02, 5.93280094e-03, 4.12600309e-01,
          3.34080428e-01, 6.26181722e-01, -1.37848049e-01,
          1.51664329e+00 ]
      - [ 5.79460524e-04, 2.61401031e-02, 2.61401031e-02, 2.61401031e-02,
          7.71648064e-02, -1.24905907e-01, 0., 2.24798441e-01,
          1.76445693e-01, 2.64942180e-02, -6.40625581e-02,
          1.76445693e-01, 1.00761726e-01, 2.47075483e-01, 2.00235769e-01,
          1.00761726e-01, 7.89997652e-02, 1.77057371e-01, 3.15323025e-01,
          6.48834646e-01, 3.54951650e-01, 1.74803898e-01, 1.62313327e-01,
          5.28145969e-01, -8.76272544e-02, 1.53396040e-01,
          -2.10215244e-02, 2.77078629e-01, 5.50777137e-01,
          4.13380653e-01, -1.62474245e-01, 1.38268912e+00 ]
      - [ 6.96926471e-03, 1.39385294e-02, 1.39385294e-02, 5.04354713e-03,
          6.97079301e-02, -5.63348904e-02, -5.48523925e-02,
          9.64692980e-02, 4.36801724e-02, 4.09291498e-02, 3.20341662e-02,
          9.40850750e-02, 9.65457186e-02, 1.11385964e-01, 2.25538254e-01,
          1.60293087e-01, 3.98898683e-02, 5.49899302e-02, 2.10728556e-01,
          5.93762994e-01, 2.16903076e-01, 1.09918751e-01, 2.16658548e-01,
          3.55891019e-01, 1.42961636e-01, 8.76660123e-02, 3.42808329e-02,
          6.05989769e-02, 2.92541027e-01, 5.11950612e-01,
          -3.82239744e-02, 9.37595367e-01 ]
      - [ -4.94546592e-02, -4.38277759e-02, -1.28953800e-01,
          -7.38722533e-02, 1.57604456e-01, -2.55378067e-01, 0.,
          1.88578144e-01, 7.84666687e-02, -1.00664478e-02,
          8.50744024e-02, 7.84666687e-02, 1.54455453e-01, 5.36206186e-01,
          3.40917081e-01, 2.09537014e-01, -2.96108514e-01,
          9.08045396e-02, 2.31941313e-01, 1.24111557e+00, 3.41071814e-01,
          2.26933897e-01, 2.97037661e-01, 4.02709574e-01,
          -1.02212951e-02, 7.05167651e-02, -1.91056043e-01,
          -1.42479325e-02, 7.59061933e-01, 7.13995159e-01,
          -1.80370122e-01, 1.44812334e+00 ]
      - [ -4.36451323e-02, 0., 0., 0., -2.20293906e-02, 3.36767966e-03,
          0., 5.39577119e-02, -9.35058445e-02, -1.30690470e-01,
          -1.33205011e-01, -9.35058445e-02, -1.82575900e-02,
          1.04562715e-01, 1.09172694e-01, 5.85826598e-02,
          -4.36451323e-02, 3.52960005e-02, -4.50907201e-01,
          2.54060477e-01, -1.77437931e-01, -2.27600764e-02,
          -2.40323134e-02, 1.90345291e-02, -1.14899799e-01,
          -1.48948058e-01, -6.23068474e-02, 5.39577119e-02,
          -1.37891188e-01, -5.89555129e-02, -2.60527790e-01,
          5.53320125e-02 ]
      - [ -2.72637978e-02, -2.09455211e-02, 8.43879487e-03,
          2.10320726e-02, 2.10320726e-01, 0., 0., 1.29546314e-01,
          1.41966492e-01, 8.41282904e-02, 8.41282904e-02, 5.80112971e-02,
          9.07494947e-02, 1.79118812e-01, 1.79118812e-01, 1.39023736e-01,
          -1.87384505e-02, 3.39867026e-01, 3.68234366e-01,
          5.88010848e-01, 4.15772885e-01, 2.42301568e-01, 2.71685898e-01,
          3.47613394e-01, 1.95888236e-01, 1.95909858e-01, 1.62111402e-01,
          1.59017175e-01, 4.95963126e-01, 4.60282147e-01, 1.68256581e-01,
          1.10911727e+00 ]
      - [ -2.55170837e-03, 4.07059416e-02, 4.07059416e-02,
          4.07059416e-02, 2.15722129e-01, -7.73493350e-01,
          -5.03382623e-01, 4.36193585e-01, 2.74765104e-01,
          1.62823766e-01, 1.33369401e-01, -5.24824977e-01,
          -3.06189656e-01, -2.48901412e-01, 3.85929525e-01,
          4.68118310e-01, 1.19566105e-01, -6.24960303e-01,
          4.61332500e-02, 2.98956633e-01, 1.81745827e-01,
          -8.18865061e-01, 5.66222109e-02, 4.20192838e-01,
          -1.74557328e-01, -6.06042624e-01, -5.19617021e-01,
          1.42228175e-02, -1.17502198e-01, 4.62592244e-01,
          -9.80682850e-01, 8.20378780e-01 ]
      - [ 2.06209496e-02, 3.51006836e-02, 2.50719171e-02, 4.69887182e-02,
          -5.93838282e-02, -1.84574381e-01, -1.84574381e-01,
          -1.26599073e-01, 2.00575337e-01, -2.75171340e-01,
          -2.48803541e-01, 2.00575337e-01, -8.04554895e-02,
          4.01150674e-01, 3.51288557e-01, -1.55840263e-01,
          1.27782255e-01, -5.55131614e-01, -1.22824252e-01,
          5.16143441e-01, 8.13569576e-02, -2.34943572e-02,
          -5.70174120e-02, -3.48753072e-02, -5.68597198e-01,
          -4.93212461e-01, -1.88236535e-01, -2.39112794e-01,
          2.46099189e-01, 1.47220075e-01, -8.93123686e-01,
          8.59093428e-01 ]
      - [ -2.09741611e-02, 5.47117600e-03, 3.90798319e-03,
          9.37915966e-03, -8.94300789e-02, -1.61734983e-01, 0.,
          1.05462432e-01, 9.12419260e-02, -1.86270714e-01,
          -2.17694655e-01, -1.45824477e-01, -1.37120739e-01,
          1.44863680e-01, 1.94663107e-01, 1.15774959e-01,
          -2.21584504e-03, -1.45702615e-01, -4.58547920e-01,
          3.18181008e-01, -1.56283051e-01, -1.97670847e-01,
          -1.91235580e-02, 8.47920775e-02, -2.84628838e-01,
          -3.14012289e-01, -2.66668051e-01, 1.18749574e-01,
          -8.72858241e-02, -5.30810542e-02, -5.65700412e-01,
          2.77414918e-01 ]
      - [ 1.14365689e-01, 6.80492446e-02, 6.80492446e-02,
          -5.30113978e-03, 6.20693192e-02, 0., -5.82257748e-01,
          -1.20719612e-01, -6.43078461e-02, -2.12388694e-01,
          -1.05201483e-01, -6.43078461e-02, -3.56305152e-01,
          4.21301305e-01, 7.77705669e-01, 7.17906654e-02, 2.45163053e-01,
          -6.40908062e-01, -4.46205884e-01, 9.14492488e-01,
          -2.44178027e-01, 2.76961803e-01, 1.58295706e-01,
          -1.18537962e-01, 8.09548572e-02, -1.15625262e+00,
          2.44484290e-01, -6.40229285e-01, -2.11700261e-01,
          6.79987073e-01, -8.99847925e-01, 9.72389698e-01 ]
      - [ 0., 0., 3.42294127e-01, 4.15642887e-01, -7.75401056e-01,
          9.31210220e-01, 8.41156721e-01, -9.56722572e-02,
          6.27944171e-01, -4.83828396e-01, 1.95596650e-01,
          2.08960399e-01, -7.16782808e-01, -3.90889615e-01,
          -7.44117722e-02, 2.71071494e-01, 7.57937074e-01,
          9.01293457e-01, 5.48672795e-01, -9.11012828e-01,
          -8.64239633e-01, 5.64921051e-02, 1.30463552e+00,
          8.00002396e-01, 1.39787841e+00, 5.61885051e-02, 1.55809179e-01,
          1.50342155e+00, -9.63556707e-01, 6.01216555e-01,
          1.48413515e+00, -1.87243864e-01 ]
      - [ 0., 0., 2.52018183e-01, 3.06022108e-01, -3.96881759e-01,
          8.48876476e-01, 7.07852066e-01, 6.26206174e-02, 5.67254186e-01,
          -4.02683109e-01, 1.44010410e-01, 1.73358500e-01,
          -4.63085592e-01, -2.94675320e-01, -1.21316805e-01,
          3.02438885e-01, 5.58040321e-01, 1.22246730e+00, 4.81939942e-01,
          -5.76638877e-01, -2.92713106e-01, 1.51518136e-01,
          9.82563794e-01, 8.44440103e-01, 1.29532588e+00, 1.48105472e-01,
          4.51994747e-01, 1.32851291e+00, -5.93189895e-01,
          4.98490751e-01, 1.29805577e+00, 3.87752980e-01 ]
      - [ -2.80864239e-01, -1.06426962e-02, 9.58942622e-02,
          5.51425107e-02, -5.75951457e-01, 8.39488745e-01,
          5.24519920e-01, -3.23941022e-01, 5.38194776e-01,
          -3.04498553e-01, -4.46793437e-01, 4.05328214e-01,
          -7.65762389e-01, -3.28602314e-01, 4.06559914e-01,
          4.70788330e-01, -1.40470162e-01, 4.64116246e-01,
          1.92231014e-01, -2.17016548e-01, -1.08438337e+00,
          1.95745185e-01, 5.80180645e-01, 6.07317984e-01, 5.82619429e-01,
          -4.90598440e-01, -2.79696640e-02, 3.51615667e-01,
          -8.60668540e-01, 8.35882962e-01, 6.12716734e-01,
          -3.13856244e-01 ]
      - [ 0., 0., -1.96274333e-02, 3.40768039e-01, -8.51726413e-01,
          6.21104419e-01, 8.01237524e-01, 1.77163228e-01, 8.12084198e-01,
          -3.65689695e-01, 1.89042985e-01, 2.68585682e-01,
          -8.22801888e-01, -7.26730824e-01, -4.67442423e-02,
          2.57351577e-01, 3.21140647e-01, 7.47778714e-01, 9.04023111e-01,
          -1.33892536e+00, -8.62444222e-01, -4.71316308e-01,
          9.23908591e-01, 1.04386854e+00, 1.06749904e+00,
          -4.64859046e-02, -2.30621964e-01, 1.29954135e+00,
          -1.10313833e+00, 6.68235779e-01, 1.24569511e+00,
          -6.11677885e-01 ]
      - [ -1.77247301e-02, -2.61792511e-01, 2.94767231e-01,
          3.14638764e-01, -7.95544863e-01, 1.43678105e+00,
          4.32005852e-01, -5.14224842e-02, 7.68124640e-01,
          1.02225272e-02, -3.46978873e-01, 2.35597625e-01,
          -8.52198005e-01, -6.82594597e-01, -2.01451451e-01,
          2.37129346e-01, 3.29888761e-01, 1.02181947e+00, 6.66965842e-01,
          -1.49911487e+00, -8.97342861e-01, 5.02616346e-01,
          1.78342462e-01, 7.35943198e-01, 1.30920672e+00,
          -9.53307897e-02, 3.61718893e-01, 9.89989340e-01,
          -7.56445527e-01, -7.57036582e-02, 1.53203034e+00,
          -1.01247072e+00 ]
      - [ 0., 0., 2.34107122e-01, -8.71806324e-01, -1.72053710e-01,
          5.03476560e-01, 5.08681059e-01, 6.16418123e-01, 1.20005524e+00,
          -1.29281330e+00, -1.58429968e+00, 2.52201867e+00, 0.,
          -3.05630296e-01, -8.58287632e-01, -1.34451556e+00,
          -6.37699187e-01, 1.45652175e+00, 8.44961464e-01,
          -2.50843358e+00, 1.02800155e+00, -1.09496689e+00,
          -1.69979954e+00, 9.22114909e-01, -2.42533922e+00,
          -1.65593815e+00, 3.31422895e-01, 4.87400174e-01,
          -3.98388147e-01, -1.26508391e+00, -1.86495459e+00,
          1.02030635e+00 ]
      - [ -2.94099420e-01, -3.19897622e-01, -1.76477164e-01,
          -1.25842735e-01, -3.48057002e-01, 8.98127079e-01,
          4.70139325e-01, 2.56320387e-01, 6.90954387e-01,
          -4.12771143e-02, 5.24709076e-02, 3.74992073e-01,
          -3.30216914e-01, -3.11502278e-01, 2.28598267e-01,
          4.32097942e-01, -9.16316926e-01, 1.27652967e+00,
          1.07714021e+00, 1.89768970e-02, -2.81419009e-01,
          2.25450039e-01, 5.74731231e-01, 9.37567711e-01, 1.08859658e+00,
          -2.71974355e-02, -6.39269426e-02, 4.24139768e-01,
          7.95807038e-03, 1.08815920e+00, 1.37946010e+00, 7.68698528e-02 ]
      - [ 0., -1.80864006e-01, 1.40647650e-01, 3.74719828e-01,
          -7.05209017e-01, 9.72271740e-01, 3.99900705e-01,
          4.64932807e-02, 5.92223704e-01, 0., 1.76338747e-01,
          8.52498338e-02, -6.45942867e-01, -1.13204233e-01,
          4.24205661e-01, 5.06317019e-01, 3.34503531e-01, 7.13456511e-01,
          8.53812218e-01, 1.71375558e-01, -7.58928299e-01,
          6.78203464e-01, 1.14109266e+00, 1.01277995e+00, 1.65492761e+00,
          1.28677681e-01, 8.61987397e-02, 9.61761475e-01,
          -1.66923314e-01, 1.19211113e+00, 1.54851115e+00,
          5.24636745e-01 ]
      - [ -6.45319819e-02, -1.14723518e-01, -6.39851093e-02,
          -2.13587508e-02, -9.82563198e-02, 6.09286427e-01,
          3.37577611e-01, 1.48751691e-01, 3.38124484e-01, 0.,
          6.58688024e-02, 1.48751691e-01, -1.61329955e-01,
          -2.23006029e-02, 2.41174608e-01, 2.14893922e-01,
          -2.64599353e-01, 9.97359395e-01, 5.52744925e-01,
          2.72437960e-01, 1.40061891e-02, 4.72262293e-01, 5.80635846e-01,
          4.91038561e-01, 8.25517237e-01, 1.54888928e-01, 3.31774592e-01,
          4.00985450e-01, 1.54493913e-01, 6.70688987e-01, 1.01273274e+00,
          5.45210242e-01 ]
      - [ -2.63806969e-01, -2.63806969e-01, -1.10441230e-01,
          -7.75771439e-02, -1.56160295e-01, 7.11719871e-01,
          3.37024540e-01, 1.92266092e-01, 4.44224060e-01,
          -7.91420862e-02, 3.48761752e-02, 1.92266092e-01,
          -1.58284172e-01, 3.07402038e-03, 3.63517046e-01,
          3.56586516e-01, -7.15632260e-01, 1.08485019e+00,
          5.92224181e-01, 5.64893365e-01, -1.34027377e-01,
          3.71844858e-01, 6.24976456e-01, 6.63541615e-01, 8.39375615e-01,
          2.20212005e-02, 2.79456079e-02, 3.41272295e-01, 2.09871799e-01,
          9.47245777e-01, 1.00447845e+00, 5.21857142e-01 ]
      - [ 0., 0., 7.75573403e-02, 9.41767767e-02, -8.85314494e-02,
          3.60140443e-01, 1.92890927e-01, 1.30581245e-01, 2.05078498e-01,
          -7.47083053e-02, 1.94157157e-02, 1.77273929e-01,
          -9.96110663e-02, -4.14694399e-02, 1.85610041e-01,
          2.60371089e-01, 1.71734124e-01, 5.95081151e-01, 3.27059835e-01,
          3.04900587e-01, 1.69359650e-02, 2.43962690e-01, 4.75473970e-01,
          6.62403047e-01, 6.39927268e-01, 1.12748325e-01, 2.71609008e-01,
          4.95206267e-01, -1.07103316e-02, 6.42670751e-01,
          4.97738749e-01, 9.01037037e-01 ]
      - [ 0., -4.45743233e-01, -2.82216489e-01, 2.92700350e-01,
          -4.59758222e-01, 1.06092584e+00, 7.05924392e-01,
          2.77015418e-02, 4.81848300e-01, -2.90702097e-02,
          -2.69898605e-02, 8.58419985e-02, -4.65123355e-01,
          -1.87396109e-01, 9.22473148e-02, 2.76276529e-01,
          -4.35259372e-01, 1.33479357e+00, 5.11630177e-01,
          -2.83995658e-01, -4.43033308e-01, 3.98716301e-01,
          4.88965243e-01, 6.82520509e-01, 1.31021249e+00, 5.04431188e-01,
          1.55424342e-01, 7.44109750e-01, -1.99741423e-01,
          4.27375972e-01, 1.71079004e+00, -5.83620906e-01 ]
      - [ -6.14902973e-02, -7.68628642e-02, 4.07763980e-02,
          8.13573897e-02, 1.68056097e-02, 4.98827010e-01, 3.44514996e-01,
          2.68889755e-01, 4.62154269e-01, -1.22980595e-01,
          6.72224388e-02, 2.68889755e-01, -2.45961189e-01,
          -2.57034630e-01, 1.18551347e-02, 1.29754946e-01,
          -1.62193626e-02, 1.12903738e+00, 6.75285816e-01,
          -3.61385792e-01, 1.71508372e-01, 4.19488549e-02,
          4.64368910e-01, 7.48891830e-01, 6.34314120e-01, 5.69306202e-02,
          3.77279460e-01, 7.35538542e-01, -1.63822129e-01,
          4.77722228e-01, 7.87583828e-01, 6.39134407e-01 ]
      - [ 0., 0., 1.27651602e-01, 1.71334594e-01, 1.69296172e-02,
          4.58735108e-01, 3.33707519e-02, 5.25424629e-02, 5.73551893e-01,
          -1.70818910e-01, -8.02397281e-02, 2.91754931e-01,
          -2.05039248e-01, 6.45052716e-02, 3.71956289e-01,
          3.16254556e-01, 2.98986197e-01, 5.61577976e-01, 6.14248157e-01,
          5.47676802e-01, 3.85442227e-01, 3.52421463e-01, 4.52738792e-01,
          8.31886530e-01, 6.94749951e-01, -1.71152845e-01,
          4.75664705e-01, 3.84899378e-01, 2.62198955e-01, 8.99725974e-01,
          2.41047278e-01, 1.78144205e+00 ]
      - [ -1.49885684e-01, -1.49885684e-01, -6.31933361e-02,
          -2.96278261e-02, 1.23846214e-02, 4.58231002e-01,
          2.53884733e-01, 1.08222537e-01, 3.40577066e-01, 0.,
          4.95384857e-02, 1.08222537e-01, 0., 3.71538624e-02,
          2.35307813e-01, 2.01107189e-01, -3.92592520e-01,
          8.32722843e-01, 4.98338073e-01, 4.73568827e-01, 2.03076005e-01,
          3.45499158e-01, 4.75537658e-01, 3.87924433e-01, 5.58991015e-01,
          2.24256918e-01, 1.70844257e-01, 2.69286096e-01, 3.77730906e-01,
          5.94175994e-01, 7.61654198e-01, 6.50383174e-01 ]
      - [ -3.56774442e-02, -3.96416076e-02, 9.18513983e-02,
          7.76968971e-02, -2.98453242e-01, 6.23014629e-01,
          4.02500659e-01, 3.14146847e-01, 5.39939880e-01,
          -3.44956875e-01, 7.85367116e-02, 3.14146847e-01,
          -3.34007680e-01, -2.91216344e-01, -1.27469432e-02,
          1.27395511e-01, 9.42292735e-02, 1.04120886e+00, 5.87666571e-01,
          -5.10575473e-01, -1.28198504e-01, -5.28002158e-02,
          5.60141742e-01, 8.33386123e-01, 7.93269396e-01,
          -1.98766991e-01, 2.49242321e-01, 8.86195779e-01,
          -4.30241078e-01, 5.07332087e-01, 7.59095073e-01,
          4.53434229e-01 ]
      - [ -8.02975520e-02, -6.03946000e-02, 1.41668424e-01,
          1.91007122e-01, -4.22634244e-01, 7.60307729e-01,
          5.91756046e-01, 3.45117539e-01, 7.93819070e-01,
          -1.89921588e-01, -3.10855120e-01, 4.61858362e-01,
          -4.33196932e-01, -3.56446713e-01, -9.99072567e-03,
          1.76307708e-01, 1.91983432e-01, 1.27454710e+00, 7.54900694e-01,
          -6.23326778e-01, -1.42309710e-01, 1.53544843e-01,
          4.12578553e-01, 1.17429066e+00, 5.45462847e-01, 1.59644663e-01,
          1.96981356e-01, 1.26954913e+00, -1.85746178e-01,
          3.17320168e-01, 8.51287007e-01, 7.46817529e-01 ]
      - [ 0., 0., 1.14948265e-01, 1.14083990e-01, -1.83297828e-01,
          4.46108758e-01, 1.79408610e-01, 1.09762631e-01, 3.07104886e-01,
          -4.24934067e-02, -2.30472768e-03, 2.62738913e-01,
          -1.82721645e-01, -2.90683717e-01, 2.99254417e-01,
          3.85897756e-01, 2.29032263e-01, 5.51982105e-01, 5.25045633e-01,
          2.11746782e-01, -5.89145944e-02, 1.12931632e-01,
          5.91306508e-01, 8.72483313e-01, 8.29701841e-01, 6.82775602e-02,
          2.62810916e-01, 5.18203497e-01, -2.08793893e-01,
          9.45586324e-01, 5.80719173e-01, 9.37087715e-01 ]
      - [ -2.01777115e-01, -2.45015070e-01, -1.48035049e-01,
          8.37887824e-02, -6.86188757e-01, 1.07264328e+00,
          1.00155711e+00, 4.66578975e-02, 7.67046094e-01,
          -5.04442751e-01, -3.51766422e-02, 2.05197036e-01,
          -9.22409654e-01, -2.71397531e-01, -5.17878421e-02,
          3.84255946e-01, -5.11038482e-01, 1.43466949e+00,
          4.32623684e-01, -8.61339331e-01, -1.04332972e+00,
          5.17878421e-02, 7.66557395e-01, 7.19899654e-01, 1.21994555e+00,
          -3.41506481e-01, -6.03376478e-02, 9.83968616e-01,
          -9.31203902e-01, 5.02488256e-01, 1.53458071e+00,
          -1.03966486e+00 ]
      - [ -3.58629413e-02, 0., 1.79314706e-03, 5.37944073e-03,
          -6.52053431e-02, 4.84149680e-02, 6.18635677e-02,
          2.15177629e-02, -5.46094812e-02, -1.19651809e-01,
          -1.23238102e-01, -9.40587148e-02, -6.52053431e-02,
          8.06916133e-03, 4.21389565e-02, 4.21389565e-02,
          -2.86903512e-02, 6.65909573e-02, -3.91558141e-01,
          2.71417238e-02, -2.20883086e-01, -6.31676838e-02,
          -1.74424388e-02, -2.50225533e-02, -6.85471296e-02,
          -1.17614143e-01, -5.26533239e-02, 9.05539170e-02,
          -2.31397480e-01, -1.33018911e-01, -1.32611364e-01,
          -1.93904355e-01 ]
      - [ -1.52428746e-01, -1.31830961e-01, 3.73047963e-02,
          1.40088782e-01, 1.73285138e-02, 6.41155005e-01, 3.55234504e-01,
          8.27597007e-02, 4.76534098e-01, 0., 6.93140551e-02,
          1.45143762e-01, -2.59328663e-01, -2.36157432e-01,
          4.10987847e-02, 2.17549384e-01, -1.06866099e-01,
          1.09647775e+00, 6.90991879e-01, -2.36837998e-01,
          8.21051970e-02, 2.73166567e-01, 5.02952099e-01, 5.85541606e-01,
          7.75589705e-01, 2.35994652e-01, 3.74223799e-01, 6.15387797e-01,
          -1.89520549e-02, 4.73105937e-01, 1.06570351e+00,
          3.78062189e-01 ]
      - [ -1.81546569e-01, 0., 1.03991292e-01, 1.49354279e-01,
          -2.92120814e-01, 3.23820055e-01, -4.29563634e-02,
          5.15768044e-02, 1.61183298e+00, -1.33630365e-01,
          -1.54941827e-01, -7.02227592e-01, -1.28351581e+00,
          -1.06666005e+00, 6.56845927e-01, 7.43902624e-01,
          7.17990026e-02, 4.03195992e-02, 6.21033192e-01,
          -9.49427307e-01, -1.45350248e-01, -8.76470387e-01,
          5.62939048e-01, 2.42606118e-01, 7.31234252e-01,
          -1.31074822e+00, -1.49847373e-01, 2.61965930e-01,
          -8.71973336e-01, 5.43579161e-01, -7.70848012e-03,
          -2.08566904e-01 ]
      - [ -1.06229164e-01, 0., 5.44791073e-02, 9.88824666e-02,
          -7.74156332e-01, 5.74135602e-01, 7.13284135e-01,
          -5.69862247e-01, 1.24545300e+00, -8.83483708e-01,
          -8.41561019e-01, 4.78595018e-01, -9.02947843e-01,
          1.50087997e-01, 7.38099992e-01, -3.11509669e-01,
          4.71324213e-02, -5.65987118e-02, -9.96649032e-04,
          -3.26269656e-01, -5.37880301e-01, -1.59260139e-01,
          6.64302170e-01, -3.03894490e-01, -6.85164273e-01,
          -9.74264801e-01, -3.06249857e-01, 2.96783507e-01,
          -3.90890598e-01, 6.36242926e-02, -4.37624991e-01,
          1.00892253e-01 ]
      - [ -2.14389693e-02, 0., 7.10165920e-03, 2.13049781e-02,
          -2.25109190e-01, -4.40838821e-02, 2.45007232e-01,
          8.52199122e-02, 2.48558059e-01, -2.84334362e-01,
          -2.93177933e-01, -1.81025296e-01, -3.32304031e-01,
          1.58782378e-02, 1.66888997e-01, 1.66888997e-01, 6.96766749e-03,
          6.10340796e-02, -5.09979486e-01, 1.73521899e-02,
          -3.30294162e-01, -3.12539995e-01, 1.25819936e-01,
          9.23885778e-02, -1.91811815e-01, -3.50326151e-01,
          -2.90632069e-01, 3.58633757e-01, -3.52202088e-01,
          -1.40425235e-01, -3.76588970e-01, -4.80367020e-02 ]
      - [ -5.22119626e-02, 0., 1.23839803e-01, -2.48207390e-01,
          -4.07651812e-01, 9.00564134e-01, 2.86746830e-01,
          -1.58185288e-01, 7.73829341e-01, -4.26361591e-01,
          -1.43921405e-01, 6.92180172e-02, -9.01033461e-01,
          -3.25857043e-01, 5.89015603e-01, 7.10353553e-02,
          -1.76579550e-01, 6.21473968e-01, 2.72764415e-01,
          -5.66839457e-01, -5.87067902e-01, 1.48345441e-01,
          8.55680764e-01, -2.66139388e-01, 7.75466144e-01,
          -1.28885543e+00, 4.40700382e-01, 4.19384521e-03,
          -8.79422784e-01, 5.85347533e-01, 6.17028058e-01,
          -4.66208905e-01 ]
      - [ 1.45824063e+00, 7.44606924e+00, -7.50071335e+00,
          2.98892546e+00, -3.52374768e+00, 6.45289803e+00,
          4.44668025e-01, 2.76726961e+00, 4.04336929e+00, 8.07914913e-01,
          0., 2.61965203e+00, -1.02586288e+01, -6.84326220e+00,
          1.39938259e+01, -6.00894785e+00, 4.39252186e+00,
          6.14108419e+00, 7.47093630e+00, -9.11700821e+00,
          -8.28076744e+00, 7.86362886e+00, 6.93778563e+00,
          2.36690927e+00, 1.90218985e+00, -6.01712132e+00,
          1.18334618e+01, -1.29985583e+00, -1.22506104e+01,
          1.06045361e+01, 7.70547771e+00, 1.18203354e+00 ]
      - [ -6.72476709e-01, -9.07419771e-02, 9.83415730e-03,
          -1.07969329e-01, -1.31531298e-01, 8.02780390e-01,
          -2.68997610e-01, -3.41533512e-01, -1.05660036e-01,
          -2.50732332e-01, -8.51892233e-01, 5.31215131e-01,
          -7.14095473e-01, -1.68917090e-01, 9.59159076e-01,
          8.09716463e-01, -8.61353874e-01, 6.07180521e-02,
          -6.77069485e-01, 8.85862887e-01, -1.62376356e+00,
          2.92389184e-01, -1.51896641e-01, 8.91428828e-01,
          8.81280303e-02, -1.34179461e+00, -9.19695795e-02,
          -7.08666265e-01, -1.23940492e+00, 1.44819844e+00,
          -5.68841755e-01, -2.30012741e-02 ]
      - [ 5.77497706e-02, 3.84202093e-01, -3.91028619e+00,
          -5.65390289e-01, -4.37597364e-01, -1.33127272e+00,
          -1.38644502e-01, 1.92201102e+00, 1.71172261e+00,
          8.43374312e-01, 0., 7.01304734e-01, -7.53154397e-01,
          -4.24028254e+00, 9.71039891e-01, 1.15384817e-01,
          -4.03372478e+00, 1.44971320e-02, 3.25640178e+00,
          -3.90701246e+00, 5.78719378e-01, -4.34397840e+00,
          -3.07789087e+00, 2.17331076e+00, -1.15813851e+00,
          -6.13814831e-01, -1.32691824e+00, -2.69231009e+00,
          -2.43834043e+00, 1.78772902e+00, -6.26543283e-01,
          -4.04329967e+00 ]
      - [ 1.24303186e-02, -9.32912230e-01, -1.44959077e-01,
          -2.42451385e-01, -7.46584386e-02, 2.55192518e+00,
          -2.12286663e+00, -1.14279315e-01, 5.34525216e-01,
          1.95452678e+00, -1.93689394e+00, 1.20629400e-01,
          -3.54980618e-01, -9.07131016e-01, 3.12891006e-01,
          -3.55776638e-01, -1.30789232e+00, 2.40121245e-01,
          6.72787309e-01, -1.30499792e+00, 1.17316268e-01,
          2.66640902e+00, -3.89182901e+00, -5.91877937e-01,
          2.71685362e-01, -7.65771508e-01, 1.55678499e+00,
          -2.62455654e+00, 1.22694016e+00, -1.85915077e+00,
          4.46691364e-01, -2.14667368e+00 ]
      - [ 0., 0., 0., -1.12049408e-01, 1.48275912e-01, -2.17945084e-01,
          -4.38161194e-01, 1.29997820e-01, -2.75160223e-01,
          5.36987372e-02, -1.88714787e-01, 1.19558439e-01,
          1.49448052e-01, -5.89367449e-02, -2.62559742e-01,
          -2.23842412e-01, -1.12049408e-01, -3.77832592e-01,
          -2.90617853e-01, -3.95890862e-01, 2.25637201e-02,
          -2.23183081e-01, -8.89435709e-01, -8.63355473e-02,
          -6.30502284e-01, -3.47063810e-01, -6.96691647e-02,
          -4.20212775e-01, -1.30950183e-01, -5.55558443e-01,
          -7.91122377e-01, -3.85268331e-01 ]
      - [ -5.01635849e-01, -4.49398100e-01, -1.23987794e+00,
          -1.31400943e+00, -1.23872519e-01, 4.73212391e-01,
          -8.25817108e-01, 4.26352173e-01, 3.02671611e-01,
          1.14366066e+00, -3.07280779e-01, 5.71542263e-01,
          5.50032556e-01, -7.20957577e-01, 1.42885578e+00,
          3.60670865e-01, -3.50492144e+00, -5.01249358e-02,
          1.71059346e+00, 1.61860108e+00, 2.27195814e-01, 4.46517378e-01,
          -9.44120109e-01, 4.45558652e-02, 2.49668602e-02,
          -4.46133286e-01, -6.01693749e-01, -2.95335245e+00,
          1.27540731e+00, 2.05378795e+00, 4.83775288e-01,
          -7.09626317e-01 ]
      - [ 8.26853067e-02, -5.77686965e-01, -6.30348742e-01,
          1.48007944e-01, -6.52473092e-01, 1.00326382e-01,
          -2.57377791e+00, -9.26060081e-02, -6.32873356e-01,
          2.60567713e+00, 0., -1.01676750e+00, -7.82769263e-01,
          8.56103063e-01, 3.23256803e+00, 4.36926514e-01,
          -9.77342367e-01, -3.21853137e+00, 9.56036448e-01,
          3.74282885e+00, -1.98543131e+00, 2.98442030e+00,
          2.84418501e-02, -5.24438858e-01, 6.19938314e-01,
          -6.02862358e-01, -1.04714847e+00, -3.14872479e+00,
          2.04613853e+00, 2.65272689e+00, 1.32225752e-01, 3.70762348e-01 ]
      - [ -2.08095029e-01, -1.05636582e-01, -6.00827098e-01,
          -6.43278480e-01, 1.40445232e-01, 8.20272803e-01, 0.,
          2.63486147e-01, 1.81458890e-01, 8.20272803e-01, 0.,
          1.40445232e-01, 9.49670374e-02, 2.92846471e-01, 1.31818748e+00,
          6.71200827e-02, -1.55783725e+00, 1.22420406e+00,
          1.14217687e+00, 1.77312100e+00, 2.08776042e-01, 1.82775545e+00,
          7.17360377e-01, -1.72226772e-01, 6.79297805e-01,
          2.71961391e-01, 6.46986306e-01, -9.80619371e-01,
          1.38954532e+00, 1.52575278e+00, 1.64054561e+00, 9.41119313e-01 ]
      - [ -7.22200036e-01, -4.29436415e-01, -6.12413704e-01,
          -7.22200036e-01, 4.86383289e-02, 4.33637440e-01,
          -3.38041127e-01, 2.18079031e-01, 1.44888133e-01,
          4.93291765e-01, -1.59078181e-01, 1.08292662e-01,
          2.54674494e-01, 3.60026419e-01, 1.30473983e+00, 2.72972196e-01,
          -2.48625016e+00, 3.62313509e-01, 5.87394357e-01,
          2.19241285e+00, -2.73999035e-01, 8.57519269e-01,
          1.95206851e-01, -1.22855864e-01, -1.74668670e-01,
          -3.12274843e-01, -6.69360816e-01, -1.45457578e+00,
          1.25288081e+00, 1.52692664e+00, 4.29809958e-01, 2.26060897e-01 ]
      - [ 0., 4.87772077e-02, 6.50362745e-02, 1.62590686e-02,
          8.79950225e-02, 3.13223332e-01, -1.22023672e-01,
          3.00965667e-01, -1.42987724e-03, 1.36091828e-01,
          -8.87444839e-02, 3.53548080e-01, 2.97044385e-02,
          3.88833582e-02, 8.72961462e-01, 4.25676018e-01, 1.30072549e-01,
          5.80160379e-01, 3.99465561e-01, 1.36722541e+00, 1.16269544e-01,
          5.36975741e-01, 7.27229536e-01, 1.09644890e+00, 6.50154889e-01,
          6.00316115e-02, 4.49995548e-01, 2.60237306e-01, 2.03249812e-01,
          1.56344116e+00, 2.38547042e-01, 2.23837662e+00 ]
      - [ 6.68763161e-01, -1.19892538e+00, -2.12078619e+00,
          2.72114575e-01, -4.99865323e-01, 1.36467969e+00,
          4.66052182e-02, -4.97290671e-01, -5.69459617e-01,
          1.52155375e+00, -7.78294802e-01, -6.41220272e-01,
          6.51779920e-02, -2.48795033e-01, 1.15665615e+00,
          -2.88020760e-01, -2.37883377e+00, 4.14129257e-01,
          -4.67421085e-01, 6.85018241e-01, -3.35383862e-01,
          1.43851292e+00, -1.69581938e+00, -1.15441692e+00,
          9.67127085e-01, 1.90545177e+00, 3.34651858e-01,
          -2.29935694e+00, 7.68476784e-01, -5.50879657e-01,
          2.15454388e+00, -3.90164948e+00 ]
      - [ -4.66978222e-01, -3.80562723e-01, -5.16002774e-01,
          -4.66978222e-01, 1.25099909e+00, 5.21440387e-01, 0.,
          1.33226311e+00, 1.27808714e+00, 3.17042649e-01, 0.,
          1.25099909e+00, -4.52735513e-01, -1.44999254e+00,
          1.20305264e+00, -6.70184672e-01, -1.83052194e+00,
          3.10470247e+00, 2.84612894e+00, -1.36986017e+00,
          1.60937226e+00, -9.92072582e-01, 6.87049806e-01,
          1.44609928e+00, -6.15722477e-01, -6.02671206e-01,
          9.24898624e-01, 3.49282086e-01, -3.07598054e-01,
          1.78386712e+00, 8.38483095e-01, 1.91196716e+00 ]
      - [ -3.38514447e-01, -1.33030236e-01, 1.00960448e-01,
          -1.42532419e-02, 6.63963497e-01, 5.58252372e-02,
          -7.22164214e-01, 5.07177830e-01, 1.44314051e-01,
          2.82095402e-01, -2.82095402e-01, 1.66881695e-01,
          3.14759128e-02, 4.16907310e-01, 1.23528075e+00, 6.77029267e-02,
          -3.84837538e-01, 5.04802465e-01, 3.11195761e-01,
          1.75136697e+00, 5.01238942e-01, 6.21797860e-01, 3.31981570e-01,
          7.27509260e-01, -4.97081488e-01, -4.22846228e-01,
          2.48243928e-01, -1.28279120e-01, 8.74792755e-01,
          1.18777001e+00, -6.66338921e-01, 2.84886622e+00 ]
      - [ -3.48067820e-01, -2.19655231e-01, -2.93851107e-01,
          -3.08100343e-01, 2.89507300e-01, 3.53713602e-01, 0.,
          1.11298963e-01, 2.93171287e-01, 3.45279515e-01, 0.,
          5.07566631e-02, 3.38953942e-01, 2.57378250e-01, 6.94776058e-01,
          1.25756189e-01, -1.16967452e+00, 7.54519820e-01,
          6.89207494e-01, 1.41686440e+00, 5.73564708e-01, 7.36716092e-01,
          4.00924951e-01, -2.02884488e-02, 1.31401911e-01,
          3.76133114e-01, 7.54978210e-02, -4.90652502e-01,
          1.23478305e+00, 8.71288896e-01, 6.98993087e-01, 9.91924167e-01 ]
      - [ -3.62624407e-01, 5.01949370e-01, -1.78967163e-01,
          -1.25558054e+00, -1.38341725e+00, 1.59591329e+00, 0.,
          2.41067934e+00, 2.17799973e+00, -1.14910924e+00, 0.,
          2.06165981e+00, -9.92795706e-01, -1.43009663e+00,
          1.36696613e+00, -9.51311052e-01, -1.29522252e+00,
          2.62317491e+00, 3.09055018e+00, -2.00723720e+00,
          -5.60837805e-01, -4.81342971e-01, 1.18799901e+00,
          2.26544809e+00, 2.81977654e-01, -3.39748573e+00,
          3.51821005e-01, 9.76131320e-01, -1.39400196e+00,
          2.47731519e+00, 4.46804106e-01, 1.96446192e+00 ]
      - [ -2.03575775e-01, -6.02066703e-03, -2.67459154e-01,
          -4.56694394e-01, -1.47982633e+00, 5.15022933e-01, 0.,
          1.76858568e+00, 2.31876683e+00, 8.02384913e-01,
          -3.53768492e+00, 2.31876683e+00, -4.88882065e-01,
          -1.69878042e+00, 2.40975904e+00, -1.32184017e+00,
          -9.33749974e-01, 8.03782403e-01, 1.90223336e+00,
          -1.09974408e+00, 1.46482050e-01, -3.87393445e-01,
          -1.39538479e+00, 2.30881739e+00, -4.54807758e+00,
          -1.43191472e-01, -1.17439985e+00, 1.04443216e+00,
          9.33489203e-01, -1.30999312e-01, -2.22027683e+00,
          2.89280033e+00 ]
      - [ 0., 1.22834921e-01, 1.63779899e-01, -7.16537088e-02,
          -1.70598202e-03, 2.28609473e-01, -6.94358528e-01,
          2.66142368e-01, 1.70603935e-02, 5.90290070e-01,
          -3.00263166e-01, 6.55119598e-01, -1.51837602e-01,
          -9.48558569e-01, 1.58149958e+00, 7.77954578e-01,
          2.14961112e-01, -2.01312765e-01, 9.62207019e-01,
          1.25905812e+00, -1.36483148e-01, -6.82392810e-03,
          7.50657678e-01, 1.62756288e+00, 7.06301033e-01,
          -3.27559829e-01, 3.49738359e-01, -3.36090028e-01,
          -4.93045419e-01, 2.71431065e+00, -1.75722077e-01,
          2.41063499e+00 ]
      - [ -5.91781199e-01, -7.07042038e-01, -2.06085396e+00,
          -1.38221788e+00, -4.59891371e-02, 3.85049641e-01,
          5.04865944e-01, 2.23357230e-01, 2.75857925e-01,
          -6.59130290e-02, -1.04590416e+00, -1.72911793e-01,
          -9.69613373e-01, 2.31839463e-01, 3.13219935e-01,
          2.13888660e-01, -4.74189520e+00, 1.06728435e+00,
          -1.00887108e+00, -2.10666150e-01, -1.33152688e+00,
          -1.56065628e-01, -2.28867221e+00, -1.11788356e+00,
          -1.03874695e+00, -1.91287816e+00, -9.59762454e-01,
          -2.71484900e+00, -5.27828872e-01, -6.91707909e-01,
          -2.21901804e-01, -4.67224646e+00 ]
      - [ -2.60561798e-02, 0., 0., 0., -3.24856266e-02, 1.58602837e-02,
          2.91311322e-03, 1.58602837e-02, -7.23275989e-02,
          -8.60104039e-02, -9.47497487e-02, -7.49170333e-02,
          -3.44277024e-02, 9.71037801e-03, 1.81260388e-02,
          1.58602837e-02, -2.60561798e-02, 2.14805338e-03,
          -3.28004807e-01, 9.26899537e-03, -1.65297091e-01,
          -6.04397431e-02, -7.37105906e-02, -4.31964658e-02,
          -8.90853629e-02, -1.17524996e-01, -4.26815264e-02,
          1.87733956e-02, -1.83055326e-01, -1.35680467e-01,
          -1.61986753e-01, -1.80657148e-01 ]
      - [ -6.99313641e-01, -7.37543643e-01, -2.27012366e-01,
          6.41880417e-03, 1.40534317e+00, 1.75667894e+00, 0.,
          -3.77746016e-01, 1.40956652e+00, 1.42223680e+00, 0.,
          -1.48370922e-01, -9.28087592e-01, -1.80756664e+00,
          1.53095949e+00, -1.51502192e-01, -1.65745068e+00,
          2.78427577e+00, 2.68343234e+00, -1.35619628e+00,
          1.18750823e+00, 6.33805156e-01, 1.30394709e+00,
          -6.71200812e-01, 9.05863106e-01, 5.00567973e-01,
          1.72516489e+00, -5.98339677e-01, 9.61491615e-02,
          1.23108625e+00, 3.17891574e+00, -7.24854648e-01 ]
      - [ -2.29409501e-01, 0., 0., 0., 2.36309037e-01, -4.48844671e-01,
          -8.84265244e-01, 1.91087082e-01, 3.62975478e-01,
          2.45008454e-01, -1.08667657e-01, -5.78960896e-01,
          -4.70143199e-01, -6.21258020e-01, 2.18385264e-01,
          4.44644958e-01, -2.29409501e-01, -9.05713797e-01,
          -7.96446055e-02, -4.28370982e-01, -1.00268163e-01,
          -8.25094223e-01, -7.74547637e-01, 5.67712188e-02,
          -3.42276871e-01, -1.10940003e+00, -4.41945165e-01,
          -6.93178236e-01, -4.83417213e-01, -2.45982409e-02,
          -1.19676924e+00, -4.46369827e-01 ]
      - [ -4.33402881e-02, 0., 0., -1.44467633e-02, -1.34148523e-01,
          -6.59526000e-03, -1.66317225e-01, -2.23296702e-01,
          1.59721985e-01, -3.25590551e-01, -4.04509366e-01,
          1.27777576e-01, -2.08670482e-01, 1.19791485e-01,
          2.01940626e-01, -2.88307130e-01, -5.77870533e-02,
          -5.30357659e-01, -4.42600399e-01, -1.75245538e-01,
          -2.26437315e-01, -2.12394327e-01, -3.68885934e-01,
          -3.98273021e-01, -7.42752016e-01, -7.15025008e-01,
          -1.84084043e-01, -4.04060692e-01, -2.54747599e-01,
          -3.63098294e-01, -9.03012455e-01, -3.02978337e-01 ]
      - [ -1.32090021e-02, 0., 0., 0., -8.86890143e-02, -9.20322835e-02,
          9.78368707e-03, 5.32667376e-02, 4.34830524e-02,
          -1.72086224e-01, -1.98135033e-01, -1.33628339e-01,
          -1.61256477e-01, 2.27055382e-02, 6.08762726e-02,
          5.32667376e-02, -1.32090021e-02, -1.17670871e-01,
          -4.60366547e-01, -2.44079288e-02, -2.19671458e-01,
          -2.41412982e-01, -1.27475083e-01, -2.70948522e-02,
          -2.50109613e-01, -3.23559016e-01, -1.93930328e-01,
          6.30504191e-02, -2.67154127e-01, -2.17620358e-01,
          -4.52469915e-01, -1.63184538e-01 ]
      - [ 0., 0., 0., -4.24816728e-01, 2.33415924e-02, 5.81814229e-01,
          -6.77413225e-01, 9.94553696e-03, -4.79009673e-02,
          -3.16633582e-01, -2.77764767e-01, -1.42891049e-01,
          -6.03430569e-01, -1.33960366e-01, 6.64930522e-01,
          5.89628480e-02, -4.24816728e-01, -6.23119287e-02,
          -7.85190284e-01, -1.34974932e-02, -6.27990067e-01,
          1.31220311e-01, -2.90247470e-01, -4.98799294e-01,
          3.63012254e-01, -2.02229404e+00, 6.05155826e-01,
          -1.09228456e+00, -1.10192537e+00, 3.03237587e-01,
          -6.89997435e-01, -5.95819354e-01 ]
      - [ -7.51335442e-01, -7.90874362e-02, 1.89578012e-01,
          -1.06264785e-01, -1.68406680e-01, 5.52654207e-01,
          -3.83008927e-01, -5.06066680e-01, -2.31756866e-01,
          -2.29692921e-01, -7.33446538e-01, 4.77366388e-01,
          -6.23641789e-01, -1.32706240e-01, 9.20528650e-01,
          5.77206790e-01, -7.47109652e-01, -5.04828095e-01,
          -7.17529893e-01, 7.41387188e-01, -1.77514100e+00,
          1.11167684e-01, -6.34886278e-03, 4.42241728e-01,
          -3.54920924e-01, -1.34260833e+00, -4.46175396e-01,
          -8.05762291e-01, -1.21779764e+00, 1.24165523e+00,
          -7.93494105e-01, -4.34586346e-01 ]
      - [ -9.76704359e-02, 6.78500608e-02, -1.84348083e+00,
          -5.84197938e-01, -2.70724118e-01, -1.20983839e+00,
          -2.70219088e-01, -1.68177187e-01, 3.31635028e-01,
          4.79223937e-01, 0., 3.31635028e-01, 1.47396520e-01,
          -3.60203433e+00, 1.78207409e+00, -7.40173936e-01,
          -2.45749903e+00, -1.91895902e+00, 1.14249384e+00,
          -2.41273928e+00, 1.10636130e-01, -4.26479816e+00,
          -3.31625879e-01, -1.16091442e+00, -2.04768252e+00,
          -2.27796510e-01, -1.51038313e+00, -2.86607409e+00,
          -2.64377832e+00, 1.37353480e+00, -1.00083351e+00,
          -4.64586544e+00 ]
      - [ -1.13279782e-01, -9.20665383e-01, 7.05326974e-01,
          -2.97626585e-01, -3.53464842e-01, 1.76385176e+00,
          -2.11731672e+00, -7.98301578e-01, 1.64576337e-01,
          1.87820005e+00, -1.81247652e+00, 1.64576337e-01,
          -1.62973180e-01, -3.23541939e-01, 1.02593124e-01,
          -7.84943223e-01, -6.26244724e-01, -1.50523126e+00,
          3.94876242e-01, -1.16886640e+00, -4.65142041e-01,
          2.39784431e+00, -3.12187362e+00, -1.71629536e+00,
          -9.46847439e-01, -6.99716032e-01, 3.76441568e-01,
          -2.50791764e+00, 1.55626142e+00, -2.33025122e+00,
          -2.87741542e-01, -2.61772227e+00 ]
      - [ 0., 3.01632844e-03, 3.01632863e-02, -9.03614983e-02,
          9.12420750e-02, -2.23515868e-01, -3.86063874e-01,
          5.99793047e-02, -2.57386208e-01, 5.24123423e-02,
          -1.57267913e-01, 9.47456583e-02, 1.21022813e-01,
          -5.23028933e-02, -2.03678504e-01, -2.23267615e-01,
          -5.71818799e-02, -4.58358407e-01, -2.67496139e-01,
          -3.58226240e-01, -4.51213308e-02, -2.20390096e-01,
          -7.16847003e-01, -1.58904180e-01, -6.04051411e-01,
          -3.02990198e-01, -1.29257455e-01, -3.86282772e-01,
          -1.36253923e-01, -4.89468336e-01, -7.14435339e-01,
          -4.26827163e-01 ]
      - [ -1.06335187e+00, -5.10701656e-01, -8.69384170e-01,
          -1.52166855e+00, -3.02865892e-03, 8.07798430e-02,
          -8.34818482e-01, 6.07698202e-01, 1.70993179e-01,
          1.10891616e+00, -3.18828911e-01, 5.21958768e-01,
          5.72823226e-01, -3.03779691e-01, 4.35184449e-01,
          3.88616949e-01, -3.96510625e+00, -1.49369225e-01,
          1.48303926e+00, 1.09284449e+00, -3.22564006e-01,
          3.75214845e-01, -1.58784699e+00, -3.39416042e-03,
          -9.12783742e-01, -6.74747884e-01, -1.49630213e+00,
          -2.61817288e+00, 1.54895318e+00, 1.02693152e+00,
          3.60488184e-02, -1.57463992e+00 ]
      - [ 1.01571687e-01, 7.17058480e-02, 3.31795603e-01, 1.22809842e-01,
          -1.29476345e+00, -6.91638589e-01, -2.50469351e+00,
          -5.01423895e-01, -1.15794420e+00, 2.18102956e+00, 0.,
          -1.25951576e+00, -2.83810407e-01, 1.01278675e+00,
          1.48724961e+00, 4.04111952e-01, 6.27882957e-01,
